FANN_FLO_2.1
num_layers=3
learning_rate=0.700000
connection_rate=1.000000
network_type=0
learning_momentum=0.000000
training_algorithm=2
train_error_function=1
train_stop_function=0
cascade_output_change_fraction=0.010000
quickprop_decay=-0.000100
quickprop_mu=1.750000
rprop_increase_factor=1.200000
rprop_decrease_factor=0.500000
rprop_delta_min=0.000000
rprop_delta_max=50.000000
rprop_delta_zero=0.100000
cascade_output_stagnation_epochs=12
cascade_candidate_change_fraction=0.010000
cascade_candidate_stagnation_epochs=12
cascade_max_out_epochs=150
cascade_max_cand_epochs=150
cascade_num_candidate_groups=2
bit_fail_limit=3.49999994039535522461e-01
cascade_candidate_limit=1.00000000000000000000e+03
cascade_weight_multiplier=4.00000005960464477539e-01
cascade_activation_functions_count=10
cascade_activation_functions=3 5 7 8 10 11 14 15 16 17 
cascade_activation_steepnesses_count=4
cascade_activation_steepnesses=2.50000000000000000000e-01 5.00000000000000000000e-01 7.50000000000000000000e-01 1.00000000000000000000e+00 
layer_sizes=257 13 8 
scale_included=0
neurons (num_inputs, activation_function, activation_steepness)=(0, 0, 0.00000000000000000000e+00) (0, 0, 0.00000000000000000000e+00) (0, 0, 0.00000000000000000000e+00) (0, 0, 0.00000000000000000000e+00) (0, 0, 0.00000000000000000000e+00) (0, 0, 0.00000000000000000000e+00) (0, 0, 0.00000000000000000000e+00) (0, 0, 0.00000000000000000000e+00) (0, 0, 0.00000000000000000000e+00) (0, 0, 0.00000000000000000000e+00) (0, 0, 0.00000000000000000000e+00) (0, 0, 0.00000000000000000000e+00) (0, 0, 0.00000000000000000000e+00) (0, 0, 0.00000000000000000000e+00) (0, 0, 0.00000000000000000000e+00) (0, 0, 0.00000000000000000000e+00) (0, 0, 0.00000000000000000000e+00) (0, 0, 0.00000000000000000000e+00) (0, 0, 0.00000000000000000000e+00) (0, 0, 0.00000000000000000000e+00) (0, 0, 0.00000000000000000000e+00) (0, 0, 0.00000000000000000000e+00) (0, 0, 0.00000000000000000000e+00) (0, 0, 0.00000000000000000000e+00) (0, 0, 0.00000000000000000000e+00) (0, 0, 0.00000000000000000000e+00) (0, 0, 0.00000000000000000000e+00) (0, 0, 0.00000000000000000000e+00) (0, 0, 0.00000000000000000000e+00) (0, 0, 0.00000000000000000000e+00) (0, 0, 0.00000000000000000000e+00) (0, 0, 0.00000000000000000000e+00) (0, 0, 0.00000000000000000000e+00) (0, 0, 0.00000000000000000000e+00) (0, 0, 0.00000000000000000000e+00) (0, 0, 0.00000000000000000000e+00) (0, 0, 0.00000000000000000000e+00) (0, 0, 0.00000000000000000000e+00) (0, 0, 0.00000000000000000000e+00) (0, 0, 0.00000000000000000000e+00) (0, 0, 0.00000000000000000000e+00) (0, 0, 0.00000000000000000000e+00) (0, 0, 0.00000000000000000000e+00) (0, 0, 0.00000000000000000000e+00) (0, 0, 0.00000000000000000000e+00) (0, 0, 0.00000000000000000000e+00) (0, 0, 0.00000000000000000000e+00) (0, 0, 0.00000000000000000000e+00) (0, 0, 0.00000000000000000000e+00) (0, 0, 0.00000000000000000000e+00) (0, 0, 0.00000000000000000000e+00) (0, 0, 0.00000000000000000000e+00) (0, 0, 0.00000000000000000000e+00) (0, 0, 0.00000000000000000000e+00) (0, 0, 0.00000000000000000000e+00) (0, 0, 0.00000000000000000000e+00) (0, 0, 0.00000000000000000000e+00) (0, 0, 0.00000000000000000000e+00) (0, 0, 0.00000000000000000000e+00) (0, 0, 0.00000000000000000000e+00) (0, 0, 0.00000000000000000000e+00) (0, 0, 0.00000000000000000000e+00) (0, 0, 0.00000000000000000000e+00) (0, 0, 0.00000000000000000000e+00) (0, 0, 0.00000000000000000000e+00) (0, 0, 0.00000000000000000000e+00) (0, 0, 0.00000000000000000000e+00) (0, 0, 0.00000000000000000000e+00) (0, 0, 0.00000000000000000000e+00) (0, 0, 0.00000000000000000000e+00) (0, 0, 0.00000000000000000000e+00) (0, 0, 0.00000000000000000000e+00) (0, 0, 0.00000000000000000000e+00) (0, 0, 0.00000000000000000000e+00) (0, 0, 0.00000000000000000000e+00) (0, 0, 0.00000000000000000000e+00) (0, 0, 0.00000000000000000000e+00) (0, 0, 0.00000000000000000000e+00) (0, 0, 0.00000000000000000000e+00) (0, 0, 0.00000000000000000000e+00) (0, 0, 0.00000000000000000000e+00) (0, 0, 0.00000000000000000000e+00) (0, 0, 0.00000000000000000000e+00) (0, 0, 0.00000000000000000000e+00) (0, 0, 0.00000000000000000000e+00) (0, 0, 0.00000000000000000000e+00) (0, 0, 0.00000000000000000000e+00) (0, 0, 0.00000000000000000000e+00) (0, 0, 0.00000000000000000000e+00) (0, 0, 0.00000000000000000000e+00) (0, 0, 0.00000000000000000000e+00) (0, 0, 0.00000000000000000000e+00) (0, 0, 0.00000000000000000000e+00) (0, 0, 0.00000000000000000000e+00) (0, 0, 0.00000000000000000000e+00) (0, 0, 0.00000000000000000000e+00) (0, 0, 0.00000000000000000000e+00) (0, 0, 0.00000000000000000000e+00) (0, 0, 0.00000000000000000000e+00) (0, 0, 0.00000000000000000000e+00) (0, 0, 0.00000000000000000000e+00) (0, 0, 0.00000000000000000000e+00) (0, 0, 0.00000000000000000000e+00) (0, 0, 0.00000000000000000000e+00) (0, 0, 0.00000000000000000000e+00) (0, 0, 0.00000000000000000000e+00) (0, 0, 0.00000000000000000000e+00) (0, 0, 0.00000000000000000000e+00) (0, 0, 0.00000000000000000000e+00) (0, 0, 0.00000000000000000000e+00) (0, 0, 0.00000000000000000000e+00) (0, 0, 0.00000000000000000000e+00) (0, 0, 0.00000000000000000000e+00) (0, 0, 0.00000000000000000000e+00) (0, 0, 0.00000000000000000000e+00) (0, 0, 0.00000000000000000000e+00) (0, 0, 0.00000000000000000000e+00) (0, 0, 0.00000000000000000000e+00) (0, 0, 0.00000000000000000000e+00) (0, 0, 0.00000000000000000000e+00) (0, 0, 0.00000000000000000000e+00) (0, 0, 0.00000000000000000000e+00) (0, 0, 0.00000000000000000000e+00) (0, 0, 0.00000000000000000000e+00) (0, 0, 0.00000000000000000000e+00) (0, 0, 0.00000000000000000000e+00) (0, 0, 0.00000000000000000000e+00) (0, 0, 0.00000000000000000000e+00) (0, 0, 0.00000000000000000000e+00) (0, 0, 0.00000000000000000000e+00) (0, 0, 0.00000000000000000000e+00) (0, 0, 0.00000000000000000000e+00) (0, 0, 0.00000000000000000000e+00) (0, 0, 0.00000000000000000000e+00) (0, 0, 0.00000000000000000000e+00) (0, 0, 0.00000000000000000000e+00) (0, 0, 0.00000000000000000000e+00) (0, 0, 0.00000000000000000000e+00) (0, 0, 0.00000000000000000000e+00) (0, 0, 0.00000000000000000000e+00) (0, 0, 0.00000000000000000000e+00) (0, 0, 0.00000000000000000000e+00) (0, 0, 0.00000000000000000000e+00) (0, 0, 0.00000000000000000000e+00) (0, 0, 0.00000000000000000000e+00) (0, 0, 0.00000000000000000000e+00) (0, 0, 0.00000000000000000000e+00) (0, 0, 0.00000000000000000000e+00) (0, 0, 0.00000000000000000000e+00) (0, 0, 0.00000000000000000000e+00) (0, 0, 0.00000000000000000000e+00) (0, 0, 0.00000000000000000000e+00) (0, 0, 0.00000000000000000000e+00) (0, 0, 0.00000000000000000000e+00) (0, 0, 0.00000000000000000000e+00) (0, 0, 0.00000000000000000000e+00) (0, 0, 0.00000000000000000000e+00) (0, 0, 0.00000000000000000000e+00) (0, 0, 0.00000000000000000000e+00) (0, 0, 0.00000000000000000000e+00) (0, 0, 0.00000000000000000000e+00) (0, 0, 0.00000000000000000000e+00) (0, 0, 0.00000000000000000000e+00) (0, 0, 0.00000000000000000000e+00) (0, 0, 0.00000000000000000000e+00) (0, 0, 0.00000000000000000000e+00) (0, 0, 0.00000000000000000000e+00) (0, 0, 0.00000000000000000000e+00) (0, 0, 0.00000000000000000000e+00) (0, 0, 0.00000000000000000000e+00) (0, 0, 0.00000000000000000000e+00) (0, 0, 0.00000000000000000000e+00) (0, 0, 0.00000000000000000000e+00) (0, 0, 0.00000000000000000000e+00) (0, 0, 0.00000000000000000000e+00) (0, 0, 0.00000000000000000000e+00) (0, 0, 0.00000000000000000000e+00) (0, 0, 0.00000000000000000000e+00) (0, 0, 0.00000000000000000000e+00) (0, 0, 0.00000000000000000000e+00) (0, 0, 0.00000000000000000000e+00) (0, 0, 0.00000000000000000000e+00) (0, 0, 0.00000000000000000000e+00) (0, 0, 0.00000000000000000000e+00) (0, 0, 0.00000000000000000000e+00) (0, 0, 0.00000000000000000000e+00) (0, 0, 0.00000000000000000000e+00) (0, 0, 0.00000000000000000000e+00) (0, 0, 0.00000000000000000000e+00) (0, 0, 0.00000000000000000000e+00) (0, 0, 0.00000000000000000000e+00) (0, 0, 0.00000000000000000000e+00) (0, 0, 0.00000000000000000000e+00) (0, 0, 0.00000000000000000000e+00) (0, 0, 0.00000000000000000000e+00) (0, 0, 0.00000000000000000000e+00) (0, 0, 0.00000000000000000000e+00) (0, 0, 0.00000000000000000000e+00) (0, 0, 0.00000000000000000000e+00) (0, 0, 0.00000000000000000000e+00) (0, 0, 0.00000000000000000000e+00) (0, 0, 0.00000000000000000000e+00) (0, 0, 0.00000000000000000000e+00) (0, 0, 0.00000000000000000000e+00) (0, 0, 0.00000000000000000000e+00) (0, 0, 0.00000000000000000000e+00) (0, 0, 0.00000000000000000000e+00) (0, 0, 0.00000000000000000000e+00) (0, 0, 0.00000000000000000000e+00) (0, 0, 0.00000000000000000000e+00) (0, 0, 0.00000000000000000000e+00) (0, 0, 0.00000000000000000000e+00) (0, 0, 0.00000000000000000000e+00) (0, 0, 0.00000000000000000000e+00) (0, 0, 0.00000000000000000000e+00) (0, 0, 0.00000000000000000000e+00) (0, 0, 0.00000000000000000000e+00) (0, 0, 0.00000000000000000000e+00) (0, 0, 0.00000000000000000000e+00) (0, 0, 0.00000000000000000000e+00) (0, 0, 0.00000000000000000000e+00) (0, 0, 0.00000000000000000000e+00) (0, 0, 0.00000000000000000000e+00) (0, 0, 0.00000000000000000000e+00) (0, 0, 0.00000000000000000000e+00) (0, 0, 0.00000000000000000000e+00) (0, 0, 0.00000000000000000000e+00) (0, 0, 0.00000000000000000000e+00) (0, 0, 0.00000000000000000000e+00) (0, 0, 0.00000000000000000000e+00) (0, 0, 0.00000000000000000000e+00) (0, 0, 0.00000000000000000000e+00) (0, 0, 0.00000000000000000000e+00) (0, 0, 0.00000000000000000000e+00) (0, 0, 0.00000000000000000000e+00) (0, 0, 0.00000000000000000000e+00) (0, 0, 0.00000000000000000000e+00) (0, 0, 0.00000000000000000000e+00) (0, 0, 0.00000000000000000000e+00) (0, 0, 0.00000000000000000000e+00) (0, 0, 0.00000000000000000000e+00) (0, 0, 0.00000000000000000000e+00) (0, 0, 0.00000000000000000000e+00) (0, 0, 0.00000000000000000000e+00) (0, 0, 0.00000000000000000000e+00) (0, 0, 0.00000000000000000000e+00) (0, 0, 0.00000000000000000000e+00) (0, 0, 0.00000000000000000000e+00) (0, 0, 0.00000000000000000000e+00) (0, 0, 0.00000000000000000000e+00) (0, 0, 0.00000000000000000000e+00) (0, 0, 0.00000000000000000000e+00) (0, 0, 0.00000000000000000000e+00) (0, 0, 0.00000000000000000000e+00) (0, 0, 0.00000000000000000000e+00) (0, 0, 0.00000000000000000000e+00) (0, 0, 0.00000000000000000000e+00) (257, 5, 5.00000000000000000000e-01) (257, 5, 5.00000000000000000000e-01) (257, 5, 5.00000000000000000000e-01) (257, 5, 5.00000000000000000000e-01) (257, 5, 5.00000000000000000000e-01) (257, 5, 5.00000000000000000000e-01) (257, 5, 5.00000000000000000000e-01) (257, 5, 5.00000000000000000000e-01) (257, 5, 5.00000000000000000000e-01) (257, 5, 5.00000000000000000000e-01) (257, 5, 5.00000000000000000000e-01) (257, 5, 5.00000000000000000000e-01) (0, 5, 0.00000000000000000000e+00) (13, 5, 5.00000000000000000000e-01) (13, 5, 5.00000000000000000000e-01) (13, 5, 5.00000000000000000000e-01) (13, 5, 5.00000000000000000000e-01) (13, 5, 5.00000000000000000000e-01) (13, 5, 5.00000000000000000000e-01) (13, 5, 5.00000000000000000000e-01) (0, 5, 0.00000000000000000000e+00) 
connections (connected_to_neuron, weight)=(0, 2.47581720352172851562e+00) (1, 2.45362758636474609375e+00) (2, 2.48897552490234375000e+00) (3, 2.53942108154296875000e+00) (4, 2.42529630661010742188e+00) (5, 2.53551387786865234375e+00) (6, 2.57255840301513671875e+00) (7, 2.50940728187561035156e+00) (8, 2.59335851669311523438e+00) (9, 2.42217350006103515625e+00) (10, -2.75309681892395019531e-01) (11, 2.43542480468750000000e+00) (12, 2.55620670318603515625e+00) (13, -3.59593957662582397461e-01) (14, 2.49886941909790039062e+00) (15, 2.44242906570434570312e+00) (16, 2.50822019577026367188e+00) (17, 2.55812215805053710938e+00) (18, 2.52560424804687500000e+00) (19, 2.53821134567260742188e+00) (20, 2.43761348724365234375e+00) (21, 2.49381828308105468750e+00) (22, 2.59458971023559570312e+00) (23, 2.55741930007934570312e+00) (24, 2.49584293365478515625e+00) (25, 2.45268535614013671875e+00) (26, 2.51029157638549804688e+00) (27, 2.56525135040283203125e+00) (28, 2.50762748718261718750e+00) (29, 2.39841747283935546875e+00) (30, 2.58688592910766601562e+00) (31, 2.58757591247558593750e+00) (32, -3.34105461835861206055e-01) (33, -3.10289233922958374023e-01) (34, -2.59153485298156738281e-01) (35, -3.04678112268447875977e-01) (36, -3.70644479990005493164e-01) (37, -2.82464146614074707031e-01) (38, -3.91139656305313110352e-01) (39, -3.73154729604721069336e-01) (40, -2.56159365177154541016e-01) (41, -2.72036492824554443359e-01) (42, -3.33598762750625610352e-01) (43, -2.95821636915206909180e-01) (44, -2.37217605113983154297e-01) (45, -2.30598270893096923828e-01) (46, -2.49261498451232910156e-01) (47, -3.24866384267807006836e-01) (48, -2.68345117568969726562e-01) (49, -3.19526225328445434570e-01) (50, -3.82523745298385620117e-01) (51, -2.26600289344787597656e-01) (52, -2.21576750278472900391e-01) (53, -3.83802980184555053711e-01) (54, -2.65049874782562255859e-01) (55, -3.21602791547775268555e-01) (56, -3.26986283063888549805e-01) (57, -3.50627213716506958008e-01) (58, -3.52220088243484497070e-01) (59, -2.15227723121643066406e-01) (60, -3.48078578710556030273e-01) (61, -3.61203104257583618164e-01) (62, -2.23520636558532714844e-01) (63, -2.87771195173263549805e-01) (64, -2.77079522609710693359e-01) (65, 2.50202035903930664062e+00) (66, 2.59224510192871093750e+00) (67, 2.53697061538696289062e+00) (68, 2.41396903991699218750e+00) (69, 2.59551858901977539062e+00) (70, 2.55822849273681640625e+00) (71, 2.55222272872924804688e+00) (72, 2.51789474487304687500e+00) (73, 2.41904258728027343750e+00) (74, 2.45081377029418945312e+00) (75, 2.47509002685546875000e+00) (76, 2.58285713195800781250e+00) (77, 2.39596509933471679688e+00) (78, 2.54463624954223632812e+00) (79, 2.50892496109008789062e+00) (80, 2.47085189819335937500e+00) (81, 2.55652570724487304688e+00) (82, 2.47673749923706054688e+00) (83, 2.44368791580200195312e+00) (84, 2.56713533401489257812e+00) (85, 2.40610027313232421875e+00) (86, 2.51649808883666992188e+00) (87, 2.43456172943115234375e+00) (88, 2.44988584518432617188e+00) (89, 2.55869054794311523438e+00) (90, 2.41374683380126953125e+00) (91, 2.49622011184692382812e+00) (92, -1.98381304740905761719e-01) (93, -2.05642461776733398438e-01) (94, -3.87419790029525756836e-01) (95, -2.81047999858856201172e-01) (96, -2.99490898847579956055e-01) (97, -3.91043394804000854492e-01) (98, -3.39946299791336059570e-01) (99, -2.81390666961669921875e-01) (100, -3.91393929719924926758e-01) (101, -3.77586454153060913086e-01) (102, -3.25036972761154174805e-01) (103, -2.69368052482604980469e-01) (104, -3.54412585496902465820e-01) (105, -2.70092010498046875000e-01) (106, -3.90147000551223754883e-01) (107, -3.67424160242080688477e-01) (108, -2.69995748996734619141e-01) (109, -2.41379439830780029297e-01) (110, -2.54368066787719726562e-01) (111, -1.95012807846069335938e-01) (112, -2.80722796916961669922e-01) (113, -3.73499482870101928711e-01) (114, -3.47193866968154907227e-01) (115, -3.09456318616867065430e-01) (116, -3.63267987966537475586e-01) (117, -2.26564824581146240234e-01) (118, -2.70763278007507324219e-01) (119, -3.09250801801681518555e-01) (120, -2.63743042945861816406e-01) (121, -2.52885103225708007812e-01) (122, -2.08899378776550292969e-01) (123, -2.67711520195007324219e-01) (124, -2.64114677906036376953e-01) (125, -2.01906263828277587891e-01) (126, -3.54346662759780883789e-01) (127, 2.42108869552612304688e+00) (128, -1.98536872863769531250e-01) (129, -2.99880117177963256836e-01) (130, -2.56170630455017089844e-01) (131, 2.59476375579833984375e+00) (132, -2.83053755760192871094e-01) (133, -3.86794775724411010742e-01) (134, -2.70473152399063110352e-01) (135, -2.43053495883941650391e-01) (136, -2.62473940849304199219e-01) (137, -2.66207337379455566406e-01) (138, -2.16064810752868652344e-01) (139, -3.38056892156600952148e-01) (140, -3.13173979520797729492e-01) (141, -2.76020050048828125000e-01) (142, -3.38656872510910034180e-01) (143, -1.99483931064605712891e-01) (144, -2.55106687545776367188e-01) (145, -2.91437953710556030273e-01) (146, -3.14527481794357299805e-01) (147, -2.23961830139160156250e-01) (148, -3.23589950799942016602e-01) (149, -3.90877932310104370117e-01) (150, -3.38799804449081420898e-01) (151, -3.92920106649398803711e-01) (152, -2.49350130558013916016e-01) (153, -3.53286355733871459961e-01) (154, -2.66218781471252441406e-01) (155, -3.19052070379257202148e-01) (156, -3.60779792070388793945e-01) (157, -2.26152598857879638672e-01) (158, -2.93832033872604370117e-01) (159, -3.64903837442398071289e-01) (160, -3.31619948148727416992e-01) (161, -3.55589836835861206055e-01) (162, -3.66008967161178588867e-01) (163, -2.20260858535766601562e-01) (164, -3.47971767187118530273e-01) (165, -2.42069244384765625000e-01) (166, -2.68901526927947998047e-01) (167, -2.16032803058624267578e-01) (168, -3.13863784074783325195e-01) (169, -2.90553539991378784180e-01) (170, -3.59676867723464965820e-01) (171, -2.32624888420104980469e-01) (172, -3.72160762548446655273e-01) (173, -3.03920954465866088867e-01) (174, -2.37696051597595214844e-01) (175, -2.32854604721069335938e-01) (176, -2.00945973396301269531e-01) (177, -3.57810705900192260742e-01) (178, -2.62403607368469238281e-01) (179, -3.30123096704483032227e-01) (180, -3.54275792837142944336e-01) (181, -2.06790566444396972656e-01) (182, -3.28630357980728149414e-01) (183, -2.09213078022003173828e-01) (184, -3.65664094686508178711e-01) (185, -2.00436294078826904297e-01) (186, -3.33852380514144897461e-01) (187, -3.32031041383743286133e-01) (188, -2.32176125049591064453e-01) (189, -2.33271539211273193359e-01) (190, 2.48775959014892578125e+00) (191, -3.69383245706558227539e-01) (192, 2.59583330154418945312e+00) (193, 2.51616334915161132812e+00) (194, -1.95231258869171142578e-01) (195, -3.48007410764694213867e-01) (196, 2.46850705146789550781e+00) (197, -2.69719988107681274414e-01) (198, 2.42065429687500000000e+00) (199, 2.54905605316162109375e+00) (200, 2.42442083358764648438e+00) (201, 2.45539021492004394531e+00) (202, 2.51084423065185546875e+00) (203, 2.44667291641235351562e+00) (204, -2.44399487972259521484e-01) (205, 2.46756076812744140625e+00) (206, 2.40823125839233398438e+00) (207, 2.53934907913208007812e+00) (208, 2.50416278839111328125e+00) (209, 2.54024028778076171875e+00) (210, 2.40363883972167968750e+00) (211, 2.54430007934570312500e+00) (212, 2.52786254882812500000e+00) (213, 2.46942114830017089844e+00) (214, 2.52949953079223632812e+00) (215, 2.55661153793334960938e+00) (216, 2.46339750289916992188e+00) (217, -2.00221419334411621094e-01) (218, 2.41899347305297851562e+00) (219, 2.42563438415527343750e+00) (220, 2.55120134353637695312e+00) (221, 2.51088428497314453125e+00) (222, 2.45066404342651367188e+00) (223, 2.55116605758666992188e+00) (224, 2.43117880821228027344e+00) (225, 2.44984531402587890625e+00) (226, -3.92710417509078979492e-01) (227, -2.86464571952819824219e-01) (228, 2.57453823089599609375e+00) (229, 2.42235660552978515625e+00) (230, 2.45700454711914062500e+00) (231, 2.40309047698974609375e+00) (232, 2.48187828063964843750e+00) (233, 2.57197952270507812500e+00) (234, 2.45389461517333984375e+00) (235, 2.43189144134521484375e+00) (236, 2.44367170333862304688e+00) (237, 2.46625709533691406250e+00) (238, 2.57537174224853515625e+00) (239, -2.38315939903259277344e-01) (240, -3.79652887582778930664e-01) (241, 2.58314132690429687500e+00) (242, 2.50039672851562500000e+00) (243, 2.54262256622314453125e+00) (244, 2.45669364929199218750e+00) (245, 2.43402767181396484375e+00) (246, 2.50336551666259765625e+00) (247, 2.52422285079956054688e+00) (248, 2.42821931838989257812e+00) (249, 2.52648973464965820312e+00) (250, 2.55398797988891601562e+00) (251, 2.58355188369750976562e+00) (252, 2.44150543212890625000e+00) (253, 2.40878343582153320312e+00) (254, 2.53884887695312500000e+00) (255, 2.47681522369384765625e+00) (256, -3.27521771192550659180e-01) (0, 2.54055118560791015625e+00) (1, 2.58476352691650390625e+00) (2, 2.44142937660217285156e+00) (3, 2.56703901290893554688e+00) (4, 2.44589900970458984375e+00) (5, 2.44865083694458007812e+00) (6, 2.45304846763610839844e+00) (7, 2.42200970649719238281e+00) (8, 2.50667667388916015625e+00) (9, 2.48907089233398437500e+00) (10, 1.41271606087684631348e-01) (11, 2.57706499099731445312e+00) (12, 2.46857357025146484375e+00) (13, 9.73684638738632202148e-02) (14, 2.59182500839233398438e+00) (15, 2.45584630966186523438e+00) (16, 2.53043746948242187500e+00) (17, 2.53857898712158203125e+00) (18, 2.51667118072509765625e+00) (19, 2.56859636306762695312e+00) (20, 2.44607543945312500000e+00) (21, 2.44502496719360351562e+00) (22, 2.40094661712646484375e+00) (23, 2.57669687271118164062e+00) (24, 2.40314435958862304688e+00) (25, 2.58862972259521484375e+00) (26, 2.42233324050903320312e+00) (27, 2.41605854034423828125e+00) (28, 2.53160953521728515625e+00) (29, 2.50327944755554199219e+00) (30, 2.48294973373413085938e+00) (31, 2.47629213333129882812e+00) (32, 1.63633272051811218262e-01) (33, 1.99969515204429626465e-01) (34, 1.18921637535095214844e-01) (35, 2.13663414120674133301e-01) (36, 2.52751678228378295898e-01) (37, 1.76101252436637878418e-01) (38, 2.39804282784461975098e-01) (39, 1.63559630513191223145e-01) (40, 6.93034082651138305664e-02) (41, 1.13747909665107727051e-01) (42, 1.44755944609642028809e-01) (43, 1.42008289694786071777e-01) (44, 1.43788352608680725098e-01) (45, 1.40712186694145202637e-01) (46, 2.01985761523246765137e-01) (47, 7.83568173646926879883e-02) (48, 8.34223330020904541016e-02) (49, 1.22788175940513610840e-01) (50, 2.51084268093109130859e-01) (51, 1.33629098534584045410e-01) (52, 1.71944364905357360840e-01) (53, 2.56162017583847045898e-01) (54, 1.14456951618194580078e-01) (55, 1.79219856858253479004e-01) (56, 2.48922750353813171387e-01) (57, 1.40921220183372497559e-01) (58, 1.99409767985343933105e-01) (59, 1.84663549065589904785e-01) (60, 2.48331859707832336426e-01) (61, 8.64907354116439819336e-02) (62, 2.65086859464645385742e-01) (63, 1.44637122750282287598e-01) (64, 2.19132229685783386230e-01) (65, 2.44522142410278320312e+00) (66, 2.41951322555541992188e+00) (67, 2.53309679031372070312e+00) (68, 2.55399465560913085938e+00) (69, 2.59198951721191406250e+00) (70, 2.42932844161987304688e+00) (71, 2.55596971511840820312e+00) (72, 2.43840932846069335938e+00) (73, 2.50675630569458007812e+00) (74, 2.43065023422241210938e+00) (75, 2.51486968994140625000e+00) (76, 2.58014059066772460938e+00) (77, 2.56530809402465820312e+00) (78, 2.52589845657348632812e+00) (79, 2.39623475074768066406e+00) (80, 2.42076826095581054688e+00) (81, 2.50965499877929687500e+00) (82, 2.46253585815429687500e+00) (83, 2.52538442611694335938e+00) (84, 2.49848890304565429688e+00) (85, 2.50966477394104003906e+00) (86, 2.43727636337280273438e+00) (87, 2.48008346557617187500e+00) (88, 2.58325815200805664062e+00) (89, 2.56935787200927734375e+00) (90, 2.39741897583007812500e+00) (91, 2.56426191329956054688e+00) (92, 2.59979993104934692383e-01) (93, 2.66637176275253295898e-01) (94, 1.13030090928077697754e-01) (95, 2.11784198880195617676e-01) (96, 1.15989610552787780762e-01) (97, 1.36674612760543823242e-01) (98, 1.49012044072151184082e-01) (99, 7.41152912378311157227e-02) (100, 1.32795408368110656738e-01) (101, 1.82471528649330139160e-01) (102, 2.34216406941413879395e-01) (103, 1.75336077809333801270e-01) (104, 9.33589190244674682617e-02) (105, 6.89977556467056274414e-02) (106, 9.43371057510375976562e-02) (107, 7.76304900646209716797e-02) (108, 2.38436892628669738770e-01) (109, 2.24366948008537292480e-01) (110, 7.79964029788970947266e-02) (111, 2.63336181640625000000e-01) (112, 1.38153031468391418457e-01) (113, 1.44663408398628234863e-01) (114, 1.92851796746253967285e-01) (115, 2.40773066878318786621e-01) (116, 2.58459359407424926758e-01) (117, 2.34259292483329772949e-01) (118, 1.24987855553627014160e-01) (119, 2.45848491787910461426e-01) (120, 2.07748547196388244629e-01) (121, 1.26538202166557312012e-01) (122, 2.14241459965705871582e-01) (123, 2.00400486588478088379e-01) (124, 1.25847354531288146973e-01) (125, 2.59943574666976928711e-01) (126, 1.44856676459312438965e-01) (127, 2.50304985046386718750e+00) (128, 1.29290148615837097168e-01) (129, 2.26540699601173400879e-01) (130, 1.81296214461326599121e-01) (131, 2.52329826354980468750e+00) (132, 1.41684219241142272949e-01) (133, 1.48184612393379211426e-01) (134, 1.02765604853630065918e-01) (135, 1.67715117335319519043e-01) (136, 1.49854347109794616699e-01) (137, 1.29774704575538635254e-01) (138, 1.78017631173133850098e-01) (139, 1.20963230729103088379e-01) (140, 8.68136435747146606445e-02) (141, 1.88686028122901916504e-01) (142, 1.16971373558044433594e-01) (143, 1.57638654112815856934e-01) (144, 2.66021460294723510742e-01) (145, 2.42495164275169372559e-01) (146, 1.31083711981773376465e-01) (147, 2.57152765989303588867e-01) (148, 2.09426447749137878418e-01) (149, 1.88743546605110168457e-01) (150, 2.35673233866691589355e-01) (151, 1.49846956133842468262e-01) (152, 2.47953727841377258301e-01) (153, 1.82586684823036193848e-01) (154, 8.29194188117980957031e-02) (155, 1.06473073363304138184e-01) (156, 1.75202205777168273926e-01) (157, 1.60448089241981506348e-01) (158, 2.13653996586799621582e-01) (159, 2.37164333462715148926e-01) (160, 1.19660809636116027832e-01) (161, 1.27622231841087341309e-01) (162, 1.64593860507011413574e-01) (163, 1.94017007946968078613e-01) (164, 2.08478823304176330566e-01) (165, 2.00031444430351257324e-01) (166, 9.44041311740875244141e-02) (167, 9.10051465034484863281e-02) (168, 2.62478142976760864258e-01) (169, 2.05093756318092346191e-01) (170, 1.44640371203422546387e-01) (171, 8.19637477397918701172e-02) (172, 1.26451775431632995605e-01) (173, 1.94283738732337951660e-01) (174, 1.72274395823478698730e-01) (175, 1.25145182013511657715e-01) (176, 1.69450864195823669434e-01) (177, 2.36030086874961853027e-01) (178, 1.14969938993453979492e-01) (179, 1.11549302935600280762e-01) (180, 1.57445624470710754395e-01) (181, 8.33151489496231079102e-02) (182, 1.94068238139152526855e-01) (183, 1.38071373105049133301e-01) (184, 1.98573842644691467285e-01) (185, 2.09659650921821594238e-01) (186, 1.77216425538063049316e-01) (187, 1.06448024511337280273e-01) (188, 1.02779760956764221191e-01) (189, 1.23542413115501403809e-01) (190, 2.40482521057128906250e+00) (191, 1.55112549662590026855e-01) (192, 2.51237726211547851562e+00) (193, 2.50209093093872070312e+00) (194, 8.18015336990356445312e-02) (195, 1.24987423419952392578e-01) (196, 2.43479442596435546875e+00) (197, 1.08877673745155334473e-01) (198, 2.47720527648925781250e+00) (199, 2.42994451522827148438e+00) (200, 2.57518434524536132812e+00) (201, 2.55451774597167968750e+00) (202, 2.44458031654357910156e+00) (203, 2.43430805206298828125e+00) (204, 1.52932628989219665527e-01) (205, 2.54952669143676757812e+00) (206, 2.49212503433227539062e+00) (207, 2.58359622955322265625e+00) (208, 2.51822900772094726562e+00) (209, 2.53976726531982421875e+00) (210, 2.42781758308410644531e+00) (211, 2.40834641456604003906e+00) (212, 2.55575418472290039062e+00) (213, 2.55455780029296875000e+00) (214, 2.47908973693847656250e+00) (215, 2.48699998855590820312e+00) (216, 2.49688959121704101562e+00) (217, 2.60437339544296264648e-01) (218, 2.52612018585205078125e+00) (219, 2.53234148025512695312e+00) (220, 2.44519257545471191406e+00) (221, 2.53507661819458007812e+00) (222, 2.42012596130371093750e+00) (223, 2.56170129776000976562e+00) (224, 2.44129848480224609375e+00) (225, 2.43459939956665039062e+00) (226, 9.08197462558746337891e-02) (227, 1.51683345437049865723e-01) (228, 2.47614908218383789062e+00) (229, 2.50069713592529296875e+00) (230, 2.51429986953735351562e+00) (231, 2.45546436309814453125e+00) (232, 2.45934581756591796875e+00) (233, 2.56301116943359375000e+00) (234, 2.49390363693237304688e+00) (235, 2.54495048522949218750e+00) (236, 2.51666927337646484375e+00) (237, 2.59015989303588867188e+00) (238, 2.53267812728881835938e+00) (239, 1.10488340258598327637e-01) (240, 2.05517247319221496582e-01) (241, 2.56462669372558593750e+00) (242, 2.45150661468505859375e+00) (243, 2.49394345283508300781e+00) (244, 2.52331590652465820312e+00) (245, 2.53472757339477539062e+00) (246, 2.58507442474365234375e+00) (247, 2.42433643341064453125e+00) (248, 2.52783679962158203125e+00) (249, 2.51532602310180664062e+00) (250, 2.56080913543701171875e+00) (251, 2.57716083526611328125e+00) (252, 2.45453357696533203125e+00) (253, 2.58506584167480468750e+00) (254, 2.54299306869506835938e+00) (255, 2.49996328353881835938e+00) (256, 9.52555537223815917969e-02) (0, 2.56648492813110351562e+00) (1, 2.58431863784790039062e+00) (2, 2.50407648086547851562e+00) (3, 2.47131299972534179688e+00) (4, 2.50274944305419921875e+00) (5, 2.56367206573486328125e+00) (6, 2.53479003906250000000e+00) (7, 2.46989202499389648438e+00) (8, 2.46170663833618164062e+00) (9, 2.48387193679809570312e+00) (10, -1.19640275835990905762e-01) (11, 2.45599770545959472656e+00) (12, 2.42068147659301757812e+00) (13, -2.76479929685592651367e-01) (14, 2.59418678283691406250e+00) (15, 2.58943939208984375000e+00) (16, 2.48949074745178222656e+00) (17, 2.49226140975952148438e+00) (18, 2.51688623428344726562e+00) (19, 2.42834949493408203125e+00) (20, 2.48146724700927734375e+00) (21, 2.54535436630249023438e+00) (22, 2.56031751632690429688e+00) (23, 2.40092420578002929688e+00) (24, 2.51029443740844726562e+00) (25, 2.54160928726196289062e+00) (26, 2.45958900451660156250e+00) (27, 2.49949121475219726562e+00) (28, 2.48873376846313476562e+00) (29, 2.56368350982666015625e+00) (30, 2.52741909027099609375e+00) (31, 2.45934963226318359375e+00) (32, -1.58199831843376159668e-01) (33, -2.74706214666366577148e-01) (34, -1.75539121031761169434e-01) (35, -4.60326448082923889160e-02) (36, -3.06902974843978881836e-01) (37, -2.36617788672447204590e-01) (38, 2.79906764626502990723e-02) (39, -3.57786789536476135254e-02) (40, -1.48614630103111267090e-01) (41, -1.82472035288810729980e-01) (42, 2.43501737713813781738e-02) (43, -1.23802170157432556152e-01) (44, -1.44487991929054260254e-01) (45, -1.82618185877799987793e-01) (46, -1.30231603980064392090e-01) (47, -4.55795899033546447754e-02) (48, -2.86225467920303344727e-01) (49, -2.09214016795158386230e-01) (50, -2.18385323882102966309e-01) (51, -2.00626954436302185059e-01) (52, -2.59728640317916870117e-01) (53, -4.86500039696693420410e-02) (54, -1.95571348071098327637e-01) (55, -1.45303145051002502441e-01) (56, -1.02909363806247711182e-01) (57, 7.34352245926856994629e-02) (58, -3.63941267132759094238e-02) (59, -2.15331003069877624512e-01) (60, -1.64036706089973449707e-01) (61, -3.10130447149276733398e-01) (62, 5.34361675381660461426e-02) (63, -2.48610228300094604492e-03) (64, -6.50862231850624084473e-02) (65, 2.49740743637084960938e+00) (66, 2.56570529937744140625e+00) (67, 2.44752120971679687500e+00) (68, 2.57525348663330078125e+00) (69, 2.50287342071533203125e+00) (70, 2.52092027664184570312e+00) (71, 2.54110288619995117188e+00) (72, 2.43486547470092773438e+00) (73, 2.45444774627685546875e+00) (74, 2.53176498413085937500e+00) (75, 2.40484142303466796875e+00) (76, 2.58629369735717773438e+00) (77, 2.51599740982055664062e+00) (78, 2.46843957901000976562e+00) (79, 2.41453218460083007812e+00) (80, 2.42124748229980468750e+00) (81, 2.56451797485351562500e+00) (82, 2.52836942672729492188e+00) (83, 2.47598266601562500000e+00) (84, 2.42504549026489257812e+00) (85, 2.44726181030273437500e+00) (86, 2.44514369964599609375e+00) (87, 2.43131399154663085938e+00) (88, 2.42987465858459472656e+00) (89, 2.51792716979980468750e+00) (90, 2.53044700622558593750e+00) (91, 2.58030176162719726562e+00) (92, 1.72140970826148986816e-02) (93, -2.17272266745567321777e-01) (94, -2.23339423537254333496e-01) (95, 6.13054707646369934082e-02) (96, -1.15733638405799865723e-01) (97, -4.82165589928627014160e-02) (98, -8.70421901345252990723e-02) (99, -1.36348798871040344238e-01) (100, -1.46498367190361022949e-01) (101, -1.67277380824089050293e-01) (102, 1.41718760132789611816e-02) (103, -3.07501763105392456055e-01) (104, -3.08698445558547973633e-01) (105, -4.99320402741432189941e-02) (106, -2.98529118299484252930e-01) (107, 8.70127752423286437988e-02) (108, 7.01963976025581359863e-02) (109, -2.25958630442619323730e-01) (110, -2.99610286951065063477e-01) (111, -1.04425109922885894775e-01) (112, -2.57309347391128540039e-01) (113, -1.67109921574592590332e-01) (114, -2.29597732424736022949e-01) (115, -2.28132590651512145996e-01) (116, 8.95695760846138000488e-02) (117, -1.80323049426078796387e-01) (118, -1.92687556147575378418e-01) (119, -7.64245763421058654785e-02) (120, -5.29784634709358215332e-02) (121, -2.58109509944915771484e-01) (122, -2.97277867794036865234e-01) (123, 7.34132006764411926270e-02) (124, 4.43686917424201965332e-02) (125, -8.66822898387908935547e-04) (126, 4.38962355256080627441e-02) (127, 2.54814529418945312500e+00) (128, 6.00941851735115051270e-02) (129, 6.60316124558448791504e-02) (130, 2.12142542004585266113e-02) (131, 2.53310632705688476562e+00) (132, 1.32182314991950988770e-02) (133, -5.54362908005714416504e-02) (134, -1.70264378190040588379e-01) (135, 1.89837887883186340332e-02) (136, 3.80922108888626098633e-03) (137, 5.09569123387336730957e-02) (138, -1.90112277865409851074e-01) (139, -2.22103223204612731934e-01) (140, -2.65824109315872192383e-01) (141, 3.00278440117835998535e-02) (142, -1.20643600821495056152e-02) (143, -3.38300317525863647461e-03) (144, -2.26180478930473327637e-02) (145, -1.32484510540962219238e-01) (146, -1.22337982058525085449e-01) (147, -2.38709375262260437012e-02) (148, -1.98343560099601745605e-01) (149, -2.00561568140983581543e-01) (150, -1.96404382586479187012e-01) (151, -1.42144426703453063965e-01) (152, 6.10793605446815490723e-02) (153, 2.60681882500648498535e-02) (154, 4.57327738404273986816e-02) (155, 1.46256163716316223145e-02) (156, -6.56210556626319885254e-02) (157, -1.19339674711227416992e-03) (158, -2.38384202122688293457e-01) (159, -9.63493362069129943848e-02) (160, -2.59842053055763244629e-02) (161, -3.07992368936538696289e-01) (162, -1.64398387074470520020e-01) (163, -1.03588409721851348877e-01) (164, -4.89646568894386291504e-02) (165, -2.20198795199394226074e-01) (166, 2.45729461312294006348e-02) (167, -1.41264334321022033691e-01) (168, -5.47778382897377014160e-02) (169, -5.10753169655799865723e-02) (170, -2.48903557658195495605e-01) (171, -2.11424395442008972168e-01) (172, 8.81300941109657287598e-02) (173, 5.34961000084877014160e-02) (174, -1.00343383848667144775e-01) (175, -2.53104045987129211426e-02) (176, -1.69810846447944641113e-01) (177, -1.08217395842075347900e-01) (178, -1.45290210843086242676e-01) (179, -4.84038963913917541504e-02) (180, -1.99601396918296813965e-01) (181, -2.27230593562126159668e-01) (182, -2.81370788812637329102e-01) (183, -2.40579620003700256348e-02) (184, -8.66983905434608459473e-02) (185, -1.26460418105125427246e-01) (186, -3.05541247129440307617e-01) (187, -2.48428359627723693848e-01) (188, -2.18476280570030212402e-01) (189, -2.41749957203865051270e-02) (190, 2.47473287582397460938e+00) (191, 7.00035169720649719238e-02) (192, 2.48734283447265625000e+00) (193, 2.42479848861694335938e+00) (194, -1.29693761467933654785e-01) (195, 4.25095036625862121582e-02) (196, 2.51906347274780273438e+00) (197, 9.34318453073501586914e-03) (198, 2.52075576782226562500e+00) (199, 2.57346343994140625000e+00) (200, 2.57249164581298828125e+00) (201, 2.58631610870361328125e+00) (202, 2.47650289535522460938e+00) (203, 2.56979942321777343750e+00) (204, 4.39432933926582336426e-02) (205, 2.48533725738525390625e+00) (206, 2.45366668701171875000e+00) (207, 2.49364280700683593750e+00) (208, 2.48629713058471679688e+00) (209, 2.42284059524536132812e+00) (210, 2.55441665649414062500e+00) (211, 2.40115976333618164062e+00) (212, 2.51007366180419921875e+00) (213, 2.58750963211059570312e+00) (214, 2.48627948760986328125e+00) (215, 2.53255319595336914062e+00) (216, 2.57551336288452148438e+00) (217, -9.84417647123336791992e-03) (218, 2.39858865737915039062e+00) (219, 2.47150087356567382812e+00) (220, 2.58020496368408203125e+00) (221, 2.47745275497436523438e+00) (222, 2.45068216323852539062e+00) (223, 2.47167897224426269531e+00) (224, 2.50638198852539062500e+00) (225, 2.43545246124267578125e+00) (226, -8.16803053021430969238e-02) (227, -7.54696205258369445801e-02) (228, 2.55397319793701171875e+00) (229, 2.54825305938720703125e+00) (230, 2.40717124938964843750e+00) (231, 2.53059625625610351562e+00) (232, 2.53870010375976562500e+00) (233, 2.48780536651611328125e+00) (234, 2.50452661514282226562e+00) (235, 2.49182081222534179688e+00) (236, 2.57727336883544921875e+00) (237, 2.56232452392578125000e+00) (238, 2.58959484100341796875e+00) (239, -3.73444929718971252441e-02) (240, 8.42498317360877990723e-02) (241, 2.54814291000366210938e+00) (242, 2.47299289703369140625e+00) (243, 2.50350141525268554688e+00) (244, 2.53978347778320312500e+00) (245, 2.56340360641479492188e+00) (246, 2.44018554687500000000e+00) (247, 2.51942825317382812500e+00) (248, 2.46273708343505859375e+00) (249, 2.44290542602539062500e+00) (250, 2.59506034851074218750e+00) (251, 2.44707298278808593750e+00) (252, 2.52448892593383789062e+00) (253, 2.44987344741821289062e+00) (254, 2.52288293838500976562e+00) (255, 2.43500232696533203125e+00) (256, -2.20875665545463562012e-01) (0, 2.55038022994995117188e+00) (1, 2.46871018409729003906e+00) (2, 2.44756150245666503906e+00) (3, 2.50276422500610351562e+00) (4, 2.48001241683959960938e+00) (5, 2.58228874206542968750e+00) (6, 2.44559574127197265625e+00) (7, 2.57194900512695312500e+00) (8, 2.49094676971435546875e+00) (9, 2.54154777526855468750e+00) (10, -2.74828761816024780273e-01) (11, 2.45740270614624023438e+00) (12, 2.53527402877807617188e+00) (13, -4.02995675802230834961e-01) (14, 2.45082998275756835938e+00) (15, 2.48754787445068359375e+00) (16, 2.50231075286865234375e+00) (17, 2.55846261978149414062e+00) (18, 2.43146252632141113281e+00) (19, 2.46984577178955078125e+00) (20, 2.40277910232543945312e+00) (21, 2.55502176284790039062e+00) (22, 2.53671407699584960938e+00) (23, 2.44981575012207031250e+00) (24, 2.55421304702758789062e+00) (25, 2.58791780471801757812e+00) (26, 2.57843589782714843750e+00) (27, 2.40821790695190429688e+00) (28, 2.51493215560913085938e+00) (29, 2.41756916046142578125e+00) (30, 2.50180625915527343750e+00) (31, 2.46944379806518554688e+00) (32, -3.37771862745285034180e-01) (33, -2.74683445692062377930e-01) (34, -2.51842886209487915039e-01) (35, -2.53628045320510864258e-01) (36, -2.88263469934463500977e-01) (37, -4.02116149663925170898e-01) (38, -2.77547866106033325195e-01) (39, -3.93185585737228393555e-01) (40, -2.56437152624130249023e-01) (41, -3.20063024759292602539e-01) (42, -3.31651777029037475586e-01) (43, -3.17032068967819213867e-01) (44, -2.90745109319686889648e-01) (45, -2.76690632104873657227e-01) (46, -4.25353139638900756836e-01) (47, -3.84303063154220581055e-01) (48, -3.14097017049789428711e-01) (49, -3.89759510755538940430e-01) (50, -3.10326188802719116211e-01) (51, -3.07186752557754516602e-01) (52, -4.30606573820114135742e-01) (53, -3.69481176137924194336e-01) (54, -2.53240019083023071289e-01) (55, -2.72262245416641235352e-01) (56, -3.77432018518447875977e-01) (57, -2.70673066377639770508e-01) (58, -2.59913116693496704102e-01) (59, -2.58368521928787231445e-01) (60, -2.48972684144973754883e-01) (61, -3.53975623846054077148e-01) (62, -2.66943842172622680664e-01) (63, -3.54431003332138061523e-01) (64, -3.96345466375350952148e-01) (65, 2.42385959625244140625e+00) (66, 2.45243692398071289062e+00) (67, 2.57588720321655273438e+00) (68, 2.45405721664428710938e+00) (69, 2.40720272064208984375e+00) (70, 2.41501522064208984375e+00) (71, 2.42993354797363281250e+00) (72, 2.51945304870605468750e+00) (73, 2.51567697525024414062e+00) (74, 2.54521512985229492188e+00) (75, 2.46102190017700195312e+00) (76, 2.47129988670349121094e+00) (77, 2.55217552185058593750e+00) (78, 2.50903224945068359375e+00) (79, 2.58951663970947265625e+00) (80, 2.59472990036010742188e+00) (81, 2.43101978302001953125e+00) (82, 2.51464319229125976562e+00) (83, 2.39643669128417968750e+00) (84, 2.49385213851928710938e+00) (85, 2.49371671676635742188e+00) (86, 2.55648803710937500000e+00) (87, 2.54873371124267578125e+00) (88, 2.45535755157470703125e+00) (89, 2.52888870239257812500e+00) (90, 2.52267885208129882812e+00) (91, 2.43869829177856445312e+00) (92, -4.20955866575241088867e-01) (93, -2.57983535528182983398e-01) (94, -3.11601489782333374023e-01) (95, -3.84987741708755493164e-01) (96, -4.29992645978927612305e-01) (97, -2.55033344030380249023e-01) (98, -4.04969543218612670898e-01) (99, -3.71804326772689819336e-01) (100, -2.43699461221694946289e-01) (101, -3.85823220014572143555e-01) (102, -3.37739557027816772461e-01) (103, -3.20115059614181518555e-01) (104, -2.66015142202377319336e-01) (105, -3.88393133878707885742e-01) (106, -2.54962176084518432617e-01) (107, -3.90584081411361694336e-01) (108, -4.32086378335952758789e-01) (109, -3.41798752546310424805e-01) (110, -3.96936386823654174805e-01) (111, -2.33225435018539428711e-01) (112, -3.06647926568984985352e-01) (113, -2.78161913156509399414e-01) (114, -2.32657462358474731445e-01) (115, -4.08664733171463012695e-01) (116, -3.80313903093338012695e-01) (117, -2.72038191556930541992e-01) (118, -2.55799919366836547852e-01) (119, -3.20825368165969848633e-01) (120, -3.39018374681472778320e-01) (121, -3.28990012407302856445e-01) (122, -2.77995914220809936523e-01) (123, -3.27660590410232543945e-01) (124, -3.54660004377365112305e-01) (125, -3.57283920049667358398e-01) (126, -2.80334681272506713867e-01) (127, 2.47584342956542968750e+00) (128, -2.62154012918472290039e-01) (129, -1.35141029953956604004e-01) (130, -1.73980161547660827637e-01) (131, 2.43679285049438476562e+00) (132, -2.88650661706924438477e-01) (133, -2.79406070709228515625e-01) (134, -2.79190927743911743164e-01) (135, -1.22352227568626403809e-01) (136, -2.35485658049583435059e-01) (137, -1.83989927172660827637e-01) (138, -2.80622690916061401367e-01) (139, -2.35258445143699645996e-01) (140, -2.93475061655044555664e-01) (141, -2.45245501399040222168e-01) (142, -2.36170276999473571777e-01) (143, -1.67809382081031799316e-01) (144, -2.91093796491622924805e-01) (145, -2.36514136195182800293e-01) (146, -1.44160494208335876465e-01) (147, -2.39094123244285583496e-01) (148, -2.76238709688186645508e-01) (149, -1.67646810412406921387e-01) (150, -1.27605870366096496582e-01) (151, -1.82943508028984069824e-01) (152, -2.64323204755783081055e-01) (153, -1.73288211226463317871e-01) (154, -3.96140068769454956055e-01) (155, -3.04519146680831909180e-01) (156, -2.98258513212203979492e-01) (157, -1.26311585307121276855e-01) (158, -4.24544602632522583008e-01) (159, -2.45948538184165954590e-01) (160, -2.64838188886642456055e-01) (161, -1.66211143136024475098e-01) (162, -3.22874039411544799805e-01) (163, -1.21175274252891540527e-01) (164, -1.31153240799903869629e-01) (165, -3.69751423597335815430e-01) (166, -2.46913105249404907227e-01) (167, -3.70024532079696655273e-01) (168, -2.39277273416519165039e-01) (169, -4.13071841001510620117e-01) (170, -2.90818899869918823242e-01) (171, -4.18288320302963256836e-01) (172, -3.43853324651718139648e-01) (173, -2.94675558805465698242e-01) (174, -2.71633714437484741211e-01) (175, -3.20483118295669555664e-01) (176, -3.34575265645980834961e-01) (177, -1.83480605483055114746e-01) (178, -1.27263650298118591309e-01) (179, -1.78500398993492126465e-01) (180, -3.54513019323348999023e-01) (181, -2.58255094289779663086e-01) (182, -3.64829510450363159180e-01) (183, -3.04372221231460571289e-01) (184, -1.99229761958122253418e-01) (185, -3.28655928373336791992e-01) (186, -2.58728176355361938477e-01) (187, -3.00873845815658569336e-01) (188, -3.40503543615341186523e-01) (189, -3.68808835744857788086e-01) (190, 2.59582424163818359375e+00) (191, -3.73028129339218139648e-01) (192, 2.40762662887573242188e+00) (193, 2.50526380538940429688e+00) (194, -3.79739373922348022461e-01) (195, -2.37245172262191772461e-01) (196, 2.56782579421997070312e+00) (197, -3.94338876008987426758e-01) (198, 2.45322656631469726562e+00) (199, 2.56086206436157226562e+00) (200, 2.45308542251586914062e+00) (201, 2.59472131729125976562e+00) (202, 2.57488727569580078125e+00) (203, 2.54154586791992187500e+00) (204, -4.13672894239425659180e-01) (205, 2.53556728363037109375e+00) (206, 2.45337605476379394531e+00) (207, 2.51224803924560546875e+00) (208, 2.46655082702636718750e+00) (209, 2.44057655334472656250e+00) (210, 2.44821166992187500000e+00) (211, 2.54435110092163085938e+00) (212, 2.41463494300842285156e+00) (213, 2.51569557189941406250e+00) (214, 2.47229266166687011719e+00) (215, 2.52986907958984375000e+00) (216, 2.41935348510742187500e+00) (217, -1.82304367423057556152e-01) (218, 2.46130895614624023438e+00) (219, 2.51116323471069335938e+00) (220, 2.59153318405151367188e+00) (221, 2.46126413345336914062e+00) (222, 2.57044887542724609375e+00) (223, 2.40329098701477050781e+00) (224, 2.57065916061401367188e+00) (225, 2.42302322387695312500e+00) (226, -3.11973422765731811523e-01) (227, -1.67716786265373229980e-01) (228, 2.46099805831909179688e+00) (229, 2.45571708679199218750e+00) (230, 2.50760936737060546875e+00) (231, 2.51821470260620117188e+00) (232, 2.45456933975219726562e+00) (233, 2.48662805557250976562e+00) (234, 2.46389126777648925781e+00) (235, 2.47320985794067382812e+00) (236, 2.42632627487182617188e+00) (237, 2.52139854431152343750e+00) (238, 2.58958911895751953125e+00) (239, -2.13324531912803649902e-01) (240, -1.44226714968681335449e-01) (241, 2.44193172454833984375e+00) (242, 2.44549083709716796875e+00) (243, 2.58487224578857421875e+00) (244, 2.56175851821899414062e+00) (245, 2.52191448211669921875e+00) (246, 2.51887273788452148438e+00) (247, 2.58524322509765625000e+00) (248, 2.45407438278198242188e+00) (249, 2.58431291580200195312e+00) (250, 2.50053763389587402344e+00) (251, 2.44973874092102050781e+00) (252, 2.44970798492431640625e+00) (253, 2.47511768341064453125e+00) (254, 2.45716094970703125000e+00) (255, 2.42449808120727539062e+00) (256, -3.25910300016403198242e-01) (0, 2.45965147018432617188e+00) (1, 2.57124567031860351562e+00) (2, 2.56740140914916992188e+00) (3, 2.51949977874755859375e+00) (4, 2.48298597335815429688e+00) (5, 2.48974680900573730469e+00) (6, 2.57819986343383789062e+00) (7, 2.57374525070190429688e+00) (8, 2.55776929855346679688e+00) (9, 2.45554113388061523438e+00) (10, 3.67528766393661499023e-01) (11, 2.48329877853393554688e+00) (12, 2.44926142692565917969e+00) (13, 4.68668311834335327148e-01) (14, 2.45353603363037109375e+00) (15, 2.49532413482666015625e+00) (16, 2.55496406555175781250e+00) (17, 2.44253969192504882812e+00) (18, 2.46121406555175781250e+00) (19, 2.48100996017456054688e+00) (20, 2.56554317474365234375e+00) (21, 2.45058822631835937500e+00) (22, 2.53921556472778320312e+00) (23, 2.55398750305175781250e+00) (24, 2.55525684356689453125e+00) (25, 2.59308528900146484375e+00) (26, 2.40782642364501953125e+00) (27, 2.43450593948364257812e+00) (28, 2.45437717437744140625e+00) (29, 2.43645596504211425781e+00) (30, 2.54090929031372070312e+00) (31, 2.51815986633300781250e+00) (32, 3.75158637762069702148e-01) (33, 4.75767582654953002930e-01) (34, 4.05116647481918334961e-01) (35, 4.62275832891464233398e-01) (36, 3.69645684957504272461e-01) (37, 3.87447923421859741211e-01) (38, 4.40152138471603393555e-01) (39, 5.31546115875244140625e-01) (40, 4.47120279073715209961e-01) (41, 4.48486059904098510742e-01) (42, 4.18976157903671264648e-01) (43, 5.00512838363647460938e-01) (44, 5.57959437370300292969e-01) (45, 4.76643532514572143555e-01) (46, 3.99968355894088745117e-01) (47, 5.17054796218872070312e-01) (48, 5.23314356803894042969e-01) (49, 4.65313524007797241211e-01) (50, 4.02195900678634643555e-01) (51, 4.92988914251327514648e-01) (52, 5.20033001899719238281e-01) (53, 5.45542478561401367188e-01) (54, 4.51107352972030639648e-01) (55, 4.79421228170394897461e-01) (56, 5.42758941650390625000e-01) (57, 4.63064998388290405273e-01) (58, 5.18058300018310546875e-01) (59, 4.01267379522323608398e-01) (60, 5.03652095794677734375e-01) (61, 4.63098734617233276367e-01) (62, 5.23558378219604492188e-01) (63, 5.19615888595581054688e-01) (64, 3.79671424627304077148e-01) (65, 2.40615415573120117188e+00) (66, 2.45937061309814453125e+00) (67, 2.42679619789123535156e+00) (68, 2.43440723419189453125e+00) (69, 2.54032802581787109375e+00) (70, 2.39914751052856445312e+00) (71, 2.52233266830444335938e+00) (72, 2.42961931228637695312e+00) (73, 2.45892858505249023438e+00) (74, 2.46365070343017578125e+00) (75, 2.42838382720947265625e+00) (76, 2.57637739181518554688e+00) (77, 2.50442409515380859375e+00) (78, 2.58624362945556640625e+00) (79, 2.54049682617187500000e+00) (80, 2.41054272651672363281e+00) (81, 2.42924451828002929688e+00) (82, 2.47429084777832031250e+00) (83, 2.57138061523437500000e+00) (84, 2.41559219360351562500e+00) (85, 2.56620311737060546875e+00) (86, 2.49160718917846679688e+00) (87, 2.39915609359741210938e+00) (88, 2.47007346153259277344e+00) (89, 2.45047044754028320312e+00) (90, 2.44122886657714843750e+00) (91, 2.41453075408935546875e+00) (92, 5.17700433731079101562e-01) (93, 3.68918269872665405273e-01) (94, 5.38277745246887207031e-01) (95, 5.38177013397216796875e-01) (96, 3.79203647375106811523e-01) (97, 4.01779741048812866211e-01) (98, 3.69104355573654174805e-01) (99, 4.17741984128952026367e-01) (100, 5.46238899230957031250e-01) (101, 3.72382968664169311523e-01) (102, 5.44205784797668457031e-01) (103, 3.79989236593246459961e-01) (104, 4.35442775487899780273e-01) (105, 4.11987513303756713867e-01) (106, 4.12504047155380249023e-01) (107, 4.15951341390609741211e-01) (108, 5.20542740821838378906e-01) (109, 4.02878850698471069336e-01) (110, 3.60579341650009155273e-01) (111, 5.35216569900512695312e-01) (112, 4.36254590749740600586e-01) (113, 4.39001291990280151367e-01) (114, 5.10728597640991210938e-01) (115, 4.55977886915206909180e-01) (116, 4.09335821866989135742e-01) (117, 4.06466931104660034180e-01) (118, 4.59265321493148803711e-01) (119, 4.83540385961532592773e-01) (120, 4.61068600416183471680e-01) (121, 5.04625201225280761719e-01) (122, 5.02202272415161132812e-01) (123, 4.19574111700057983398e-01) (124, 5.14348506927490234375e-01) (125, 4.81285184621810913086e-01) (126, 3.98556321859359741211e-01) (127, 2.57103109359741210938e+00) (128, 5.23869991302490234375e-01) (129, 4.08465832471847534180e-01) (130, 3.92904490232467651367e-01) (131, 2.54758787155151367188e+00) (132, 4.21653956174850463867e-01) (133, 3.77915352582931518555e-01) (134, 5.31708359718322753906e-01) (135, 4.97901886701583862305e-01) (136, 4.30708020925521850586e-01) (137, 3.85017484426498413086e-01) (138, 5.54658412933349609375e-01) (139, 3.92055839300155639648e-01) (140, 4.28701490163803100586e-01) (141, 5.56042790412902832031e-01) (142, 3.68077605962753295898e-01) (143, 5.05761146545410156250e-01) (144, 4.35849279165267944336e-01) (145, 5.19611239433288574219e-01) (146, 4.02544230222702026367e-01) (147, 4.85990136861801147461e-01) (148, 3.66883248090744018555e-01) (149, 5.02614617347717285156e-01) (150, 4.10335749387741088867e-01) (151, 4.68757003545761108398e-01) (152, 4.48044866323471069336e-01) (153, 5.53343176841735839844e-01) (154, 5.29136300086975097656e-01) (155, 4.03198570013046264648e-01) (156, 4.75433439016342163086e-01) (157, 3.68497699499130249023e-01) (158, 3.78360956907272338867e-01) (159, 4.40108627080917358398e-01) (160, 4.17768687009811401367e-01) (161, 4.12070602178573608398e-01) (162, 3.91827791929244995117e-01) (163, 4.80227798223495483398e-01) (164, 4.30791109800338745117e-01) (165, 3.64341229200363159180e-01) (166, 4.18934792280197143555e-01) (167, 5.02304315567016601562e-01) (168, 3.90163868665695190430e-01) (169, 4.14398282766342163086e-01) (170, 5.35165309906005859375e-01) (171, 4.59670394659042358398e-01) (172, 4.11246269941329956055e-01) (173, 5.44047951698303222656e-01) (174, 4.06236737966537475586e-01) (175, 4.87900584936141967773e-01) (176, 5.04464387893676757812e-01) (177, 4.49586004018783569336e-01) (178, 4.14695948362350463867e-01) (179, 5.12152791023254394531e-01) (180, 3.93005698919296264648e-01) (181, 4.65836852788925170898e-01) (182, 4.21714872121810913086e-01) (183, 4.81855720281600952148e-01) (184, 4.59985107183456420898e-01) (185, 3.91656249761581420898e-01) (186, 5.25859475135803222656e-01) (187, 3.76223772764205932617e-01) (188, 4.00959223508834838867e-01) (189, 5.45025587081909179688e-01) (190, 2.49381160736083984375e+00) (191, 4.59533065557479858398e-01) (192, 2.43457531929016113281e+00) (193, 2.52644443511962890625e+00) (194, 3.80565971136093139648e-01) (195, 4.69497650861740112305e-01) (196, 2.53159046173095703125e+00) (197, 4.40305918455123901367e-01) (198, 2.44928097724914550781e+00) (199, 2.56255960464477539062e+00) (200, 2.53218317031860351562e+00) (201, 2.42525148391723632812e+00) (202, 2.46303510665893554688e+00) (203, 2.58423471450805664062e+00) (204, 3.73430579900741577148e-01) (205, 2.51007699966430664062e+00) (206, 2.51294040679931640625e+00) (207, 2.55537414550781250000e+00) (208, 2.40046834945678710938e+00) (209, 2.56844139099121093750e+00) (210, 2.50833177566528320312e+00) (211, 2.43427896499633789062e+00) (212, 2.47508335113525390625e+00) (213, 2.57085180282592773438e+00) (214, 2.55694007873535156250e+00) (215, 2.57587385177612304688e+00) (216, 2.40331315994262695312e+00) (217, 4.86930459737777709961e-01) (218, 2.59290266036987304688e+00) (219, 2.44507765769958496094e+00) (220, 2.50943517684936523438e+00) (221, 2.49084520339965820312e+00) (222, 2.54541587829589843750e+00) (223, 2.54814147949218750000e+00) (224, 2.42142057418823242188e+00) (225, 2.56678676605224609375e+00) (226, 4.21770423650741577148e-01) (227, 5.20468711853027343750e-01) (228, 2.44789791107177734375e+00) (229, 2.51185655593872070312e+00) (230, 2.52383327484130859375e+00) (231, 2.58421230316162109375e+00) (232, 2.54123926162719726562e+00) (233, 2.59099960327148437500e+00) (234, 2.57257843017578125000e+00) (235, 2.55547475814819335938e+00) (236, 2.50520801544189453125e+00) (237, 2.48964977264404296875e+00) (238, 2.51498007774353027344e+00) (239, 4.73133295774459838867e-01) (240, 4.25548642873764038086e-01) (241, 2.42744302749633789062e+00) (242, 2.54821729660034179688e+00) (243, 2.54143714904785156250e+00) (244, 2.40242624282836914062e+00) (245, 2.50928854942321777344e+00) (246, 2.52144241333007812500e+00) (247, 2.40987062454223632812e+00) (248, 2.43702411651611328125e+00) (249, 2.51847600936889648438e+00) (250, 2.45907974243164062500e+00) (251, 2.55059051513671875000e+00) (252, 2.41345262527465820312e+00) (253, 2.40862655639648437500e+00) (254, 2.50286340713500976562e+00) (255, 2.43900442123413085938e+00) (256, 5.42870759963989257812e-01) (0, 2.56543922424316406250e+00) (1, 2.40027809143066406250e+00) (2, 2.43157386779785156250e+00) (3, 2.48142671585083007812e+00) (4, 2.52824258804321289062e+00) (5, 2.41991758346557617188e+00) (6, 2.42679715156555175781e+00) (7, 2.52337360382080078125e+00) (8, 2.39662694931030273438e+00) (9, 2.58640336990356445312e+00) (10, -2.77619987726211547852e-01) (11, 2.49040794372558593750e+00) (12, 2.50551462173461914062e+00) (13, -1.63681551814079284668e-01) (14, 2.55676174163818359375e+00) (15, 2.53708887100219726562e+00) (16, 2.49900007247924804688e+00) (17, 2.50232982635498046875e+00) (18, 2.54364633560180664062e+00) (19, 2.41241979598999023438e+00) (20, 2.42790317535400390625e+00) (21, 2.55764818191528320312e+00) (22, 2.45357513427734375000e+00) (23, 2.55051040649414062500e+00) (24, 2.42085886001586914062e+00) (25, 2.40829706192016601562e+00) (26, 2.56809425354003906250e+00) (27, 2.43361663818359375000e+00) (28, 2.51529169082641601562e+00) (29, 2.41122961044311523438e+00) (30, 2.41729235649108886719e+00) (31, 2.48486185073852539062e+00) (32, -2.94693797826766967773e-01) (33, -2.57335513830184936523e-01) (34, -1.39913156628608703613e-01) (35, 4.29665818810462951660e-02) (36, -2.33286961913108825684e-01) (37, -3.08984845876693725586e-01) (38, -2.95285359025001525879e-02) (39, -2.72425189614295959473e-02) (40, -1.18450477719306945801e-01) (41, -1.97970971465110778809e-01) (42, 6.72965124249458312988e-02) (43, -2.08804890513420104980e-01) (44, -4.19021025300025939941e-02) (45, -1.77097156643867492676e-01) (46, -2.67584949731826782227e-01) (47, 6.12289980053901672363e-02) (48, -2.70635992288589477539e-01) (49, -1.19807645678520202637e-01) (50, -1.27506598830223083496e-01) (51, -3.33150401711463928223e-02) (52, -1.58028408885002136230e-01) (53, -6.45138993859291076660e-02) (54, -2.83959835767745971680e-01) (55, 7.22479894757270812988e-02) (56, -5.20858243107795715332e-02) (57, -1.06448091566562652588e-01) (58, -9.00043025612831115723e-02) (59, 6.73368647694587707520e-02) (60, -2.96373635530471801758e-01) (61, -2.73867219686508178711e-01) (62, -4.36702445149421691895e-02) (63, -7.13169947266578674316e-02) (64, -1.14522799849510192871e-02) (65, 2.43592691421508789062e+00) (66, 2.58587360382080078125e+00) (67, 2.57477140426635742188e+00) (68, 2.44140625000000000000e+00) (69, 2.46552252769470214844e+00) (70, 2.45670604705810546875e+00) (71, 2.43741989135742187500e+00) (72, 2.58201551437377929688e+00) (73, 2.43318033218383789062e+00) (74, 2.54307889938354492188e+00) (75, 2.44929122924804687500e+00) (76, 2.57054710388183593750e+00) (77, 2.58995771408081054688e+00) (78, 2.41969776153564453125e+00) (79, 2.41437530517578125000e+00) (80, 2.58461427688598632812e+00) (81, 2.40665483474731445312e+00) (82, 2.49023771286010742188e+00) (83, 2.54104995727539062500e+00) (84, 2.45131874084472656250e+00) (85, 2.52074193954467773438e+00) (86, 2.52247524261474609375e+00) (87, 2.50841045379638671875e+00) (88, 2.52347135543823242188e+00) (89, 2.54164886474609375000e+00) (90, 2.48492479324340820312e+00) (91, 2.54156160354614257812e+00) (92, 7.71990194916725158691e-02) (93, -1.59900650382041931152e-01) (94, -1.30910620093345642090e-01) (95, -2.50756517052650451660e-02) (96, -1.19842484593391418457e-01) (97, 6.43805041909217834473e-02) (98, -4.61733415722846984863e-02) (99, -6.90186992287635803223e-02) (100, -6.59657493233680725098e-02) (101, -1.90622434020042419434e-01) (102, -2.74678245186805725098e-02) (103, -2.85105437040328979492e-01) (104, -1.53310909867286682129e-01) (105, -8.02578702569007873535e-02) (106, -2.31683239340782165527e-01) (107, 2.66538634896278381348e-02) (108, -8.61688032746315002441e-02) (109, -2.07854494452476501465e-01) (110, -1.60126253962516784668e-01) (111, -9.74234417080879211426e-02) (112, -1.97068259119987487793e-01) (113, -2.65757411718368530273e-01) (114, 4.77575138211250305176e-02) (115, -1.41618385910987854004e-01) (116, 6.44019916653633117676e-02) (117, -2.30922386050224304199e-01) (118, -2.29076787829399108887e-01) (119, -7.99553841352462768555e-03) (120, -7.98561349511146545410e-02) (121, -1.40020713210105895996e-01) (122, -6.23026862740516662598e-02) (123, -9.34795513749122619629e-02) (124, 1.98290720582008361816e-02) (125, -7.87493363022804260254e-02) (126, -9.37765091657638549805e-03) (127, 2.51949691772460937500e+00) (128, -1.05191268026828765869e-01) (129, 5.36265447735786437988e-02) (130, 5.46094849705696105957e-02) (131, 2.44306707382202148438e+00) (132, -2.25318595767021179199e-02) (133, -6.36808052659034729004e-02) (134, -2.37907335162162780762e-01) (135, -6.13787546753883361816e-02) (136, -3.47610786557197570801e-02) (137, 5.01598492264747619629e-02) (138, -1.30833759903907775879e-01) (139, -2.17038795351982116699e-01) (140, -2.48517021536827087402e-01) (141, 2.87904217839241027832e-02) (142, 1.76578760147094726562e-06) (143, 7.41651430726051330566e-02) (144, 7.74970129132270812988e-02) (145, -2.48349592089653015137e-01) (146, -1.58275648951530456543e-01) (147, 5.10765984654426574707e-02) (148, -1.64807960391044616699e-01) (149, -2.72888392210006713867e-01) (150, -2.53027796745300292969e-01) (151, -1.35486528277397155762e-01) (152, -9.31586995720863342285e-02) (153, -8.66524875164031982422e-04) (154, 8.54979231953620910645e-02) (155, 3.58479693531990051270e-02) (156, 2.95617356896400451660e-02) (157, -1.47021934390068054199e-02) (158, -2.45810315012931823730e-01) (159, 3.35480347275733947754e-02) (160, -5.18980398774147033691e-02) (161, -7.67368152737617492676e-02) (162, -1.24540284276008605957e-01) (163, 3.47476676106452941895e-02) (164, -3.12400236725807189941e-02) (165, -4.26971688866615295410e-02) (166, 8.25465098023414611816e-02) (167, -1.62110015749931335449e-01) (168, -8.33597555756568908691e-02) (169, 6.61767497658729553223e-02) (170, -2.64684796333312988281e-01) (171, -2.22699210047721862793e-01) (172, 4.14473563432693481445e-03) (173, 4.97809723019599914551e-02) (174, -3.40700522065162658691e-02) (175, -9.18068736791610717773e-03) (176, -2.89391040802001953125e-01) (177, -7.78817310929298400879e-02) (178, -2.54212945699691772461e-01) (179, 6.55514374375343322754e-02) (180, -2.41592571139335632324e-01) (181, -1.92776784300804138184e-01) (182, -1.60757526755332946777e-01) (183, -2.02872678637504577637e-02) (184, -7.91792646050453186035e-02) (185, -1.66082069277763366699e-01) (186, -2.80548125505447387695e-01) (187, -1.45726397633552551270e-01) (188, -6.63202181458473205566e-02) (189, -6.60800188779830932617e-03) (190, 2.50733184814453125000e+00) (191, -9.04070585966110229492e-03) (192, 2.53087902069091796875e+00) (193, 2.49725580215454101562e+00) (194, -2.70401865243911743164e-01) (195, -9.62297096848487854004e-02) (196, 2.56373596191406250000e+00) (197, -7.33913555741310119629e-02) (198, 2.56117057800292968750e+00) (199, 2.58955383300781250000e+00) (200, 2.40700936317443847656e+00) (201, 2.41094970703125000000e+00) (202, 2.48131895065307617188e+00) (203, 2.52033185958862304688e+00) (204, 6.48619607090950012207e-02) (205, 2.55642604827880859375e+00) (206, 2.42032861709594726562e+00) (207, 2.59498119354248046875e+00) (208, 2.58772230148315429688e+00) (209, 2.48057961463928222656e+00) (210, 2.56971025466918945312e+00) (211, 2.46059370040893554688e+00) (212, 2.40226697921752929688e+00) (213, 2.52341699600219726562e+00) (214, 2.54948377609252929688e+00) (215, 2.43226528167724609375e+00) (216, 2.47179889678955078125e+00) (217, 7.83533230423927307129e-02) (218, 2.40100288391113281250e+00) (219, 2.51465606689453125000e+00) (220, 2.48596930503845214844e+00) (221, 2.51246595382690429688e+00) (222, 2.41479301452636718750e+00) (223, 2.42097949981689453125e+00) (224, 2.41385293006896972656e+00) (225, 2.45885515213012695312e+00) (226, -7.11189880967140197754e-02) (227, 7.66738429665565490723e-02) (228, 2.49464130401611328125e+00) (229, 2.39922904968261718750e+00) (230, 2.57540559768676757812e+00) (231, 2.50578165054321289062e+00) (232, 2.41431021690368652344e+00) (233, 2.46085548400878906250e+00) (234, 2.43024444580078125000e+00) (235, 2.58834981918334960938e+00) (236, 2.42141270637512207031e+00) (237, 2.45470428466796875000e+00) (238, 2.58746242523193359375e+00) (239, -9.17804017663002014160e-02) (240, 3.43687012791633605957e-02) (241, 2.56130361557006835938e+00) (242, 2.47799062728881835938e+00) (243, 2.54581308364868164062e+00) (244, 2.48885154724121093750e+00) (245, 2.43160581588745117188e+00) (246, 2.58220958709716796875e+00) (247, 2.56478166580200195312e+00) (248, 2.41913652420043945312e+00) (249, 2.58734321594238281250e+00) (250, 2.48356890678405761719e+00) (251, 2.50923705101013183594e+00) (252, 2.50394058227539062500e+00) (253, 2.50249290466308593750e+00) (254, 2.53434801101684570312e+00) (255, 2.52192449569702148438e+00) (256, 6.04328885674476623535e-02) (0, 2.57240629196166992188e+00) (1, 2.50777602195739746094e+00) (2, 2.46425151824951171875e+00) (3, 2.57576704025268554688e+00) (4, 2.48731255531311035156e+00) (5, 2.57416486740112304688e+00) (6, 2.59420824050903320312e+00) (7, 2.55229902267456054688e+00) (8, 2.40854024887084960938e+00) (9, 2.58668947219848632812e+00) (10, 8.79580616950988769531e-01) (11, 2.46737575531005859375e+00) (12, 2.57828283309936523438e+00) (13, 8.96977782249450683594e-01) (14, 2.41092205047607421875e+00) (15, 2.54371786117553710938e+00) (16, 2.47736215591430664062e+00) (17, 2.56086635589599609375e+00) (18, 2.43670058250427246094e+00) (19, 2.51309871673583984375e+00) (20, 2.54720687866210937500e+00) (21, 2.40561342239379882812e+00) (22, 2.53636693954467773438e+00) (23, 2.53868150711059570312e+00) (24, 2.49331331253051757812e+00) (25, 2.44973492622375488281e+00) (26, 2.44675326347351074219e+00) (27, 2.39993762969970703125e+00) (28, 2.58821392059326171875e+00) (29, 2.57280921936035156250e+00) (30, 2.56954813003540039062e+00) (31, 2.56475162506103515625e+00) (32, 7.86453843116760253906e-01) (33, 7.39668726921081542969e-01) (34, 8.46387147903442382812e-01) (35, 8.77897620201110839844e-01) (36, 7.17964529991149902344e-01) (37, 8.44726681709289550781e-01) (38, 8.34327816963195800781e-01) (39, 7.30636119842529296875e-01) (40, 8.35546970367431640625e-01) (41, 8.16301941871643066406e-01) (42, 8.02143096923828125000e-01) (43, 8.17960858345031738281e-01) (44, 8.15673232078552246094e-01) (45, 8.17196369171142578125e-01) (46, 7.65809774398803710938e-01) (47, 8.97166371345520019531e-01) (48, 7.82194018363952636719e-01) (49, 8.06641459465026855469e-01) (50, 8.14396500587463378906e-01) (51, 7.33532190322875976562e-01) (52, 8.16386103630065917969e-01) (53, 7.54894375801086425781e-01) (54, 8.76344919204711914062e-01) (55, 7.13830709457397460938e-01) (56, 8.08760523796081542969e-01) (57, 7.27229356765747070312e-01) (58, 7.17899680137634277344e-01) (59, 8.01105618476867675781e-01) (60, 7.04169631004333496094e-01) (61, 8.91579031944274902344e-01) (62, 7.69988417625427246094e-01) (63, 7.93017029762268066406e-01) (64, 7.33641266822814941406e-01) (65, 2.41703152656555175781e+00) (66, 2.47157049179077148438e+00) (67, 2.45226144790649414062e+00) (68, 2.56415176391601562500e+00) (69, 2.40829181671142578125e+00) (70, 2.48529100418090820312e+00) (71, 2.50209236145019531250e+00) (72, 2.52698755264282226562e+00) (73, 2.58982801437377929688e+00) (74, 2.42244672775268554688e+00) (75, 2.44505429267883300781e+00) (76, 2.50941801071166992188e+00) (77, 2.49064993858337402344e+00) (78, 2.44461441040039062500e+00) (79, 2.59400558471679687500e+00) (80, 2.39968490600585937500e+00) (81, 2.56140422821044921875e+00) (82, 2.42993116378784179688e+00) (83, 2.51846456527709960938e+00) (84, 2.41869211196899414062e+00) (85, 2.40866947174072265625e+00) (86, 2.53468894958496093750e+00) (87, 2.52984619140625000000e+00) (88, 2.43829250335693359375e+00) (89, 2.55498218536376953125e+00) (90, 2.43334531784057617188e+00) (91, 2.44485569000244140625e+00) (92, 8.50692272186279296875e-01) (93, 8.07464957237243652344e-01) (94, 8.42003941535949707031e-01) (95, 8.86726975440979003906e-01) (96, 8.28627705574035644531e-01) (97, 7.17705726623535156250e-01) (98, 7.43119716644287109375e-01) (99, 7.96910524368286132812e-01) (100, 7.30128884315490722656e-01) (101, 8.32542181015014648438e-01) (102, 7.03134059906005859375e-01) (103, 8.61247539520263671875e-01) (104, 8.26501131057739257812e-01) (105, 7.29711890220642089844e-01) (106, 7.10433006286621093750e-01) (107, 7.40050196647644042969e-01) (108, 8.24492931365966796875e-01) (109, 7.59178400039672851562e-01) (110, 7.38186717033386230469e-01) (111, 8.28309178352355957031e-01) (112, 7.24713802337646484375e-01) (113, 7.72248983383178710938e-01) (114, 7.50904917716979980469e-01) (115, 7.47537136077880859375e-01) (116, 7.85049676895141601562e-01) (117, 8.89724969863891601562e-01) (118, 8.81514549255371093750e-01) (119, 8.27473282814025878906e-01) (120, 8.48838210105895996094e-01) (121, 7.18991160392761230469e-01) (122, 8.76460194587707519531e-01) (123, 8.01923990249633789062e-01) (124, 8.28849673271179199219e-01) (125, 8.20857644081115722656e-01) (126, 7.91044473648071289062e-01) (127, 2.45813322067260742188e+00) (128, 8.40956926345825195312e-01) (129, 8.36557745933532714844e-01) (130, 8.59175086021423339844e-01) (131, 2.57174158096313476562e+00) (132, 7.71493434906005859375e-01) (133, 8.64702582359313964844e-01) (134, 8.37120413780212402344e-01) (135, 7.00388193130493164062e-01) (136, 8.96808028221130371094e-01) (137, 8.49946975708007812500e-01) (138, 7.42831826210021972656e-01) (139, 8.23694467544555664062e-01) (140, 7.11518883705139160156e-01) (141, 7.83412098884582519531e-01) (142, 7.54397273063659667969e-01) (143, 7.38626241683959960938e-01) (144, 8.58054518699645996094e-01) (145, 8.07695627212524414062e-01) (146, 7.88556933403015136719e-01) (147, 7.45497703552246093750e-01) (148, 7.99814105033874511719e-01) (149, 7.72465109825134277344e-01) (150, 8.75364542007446289062e-01) (151, 7.51045942306518554688e-01) (152, 7.93849825859069824219e-01) (153, 8.54218363761901855469e-01) (154, 8.55363368988037109375e-01) (155, 7.25093126296997070312e-01) (156, 7.77469515800476074219e-01) (157, 7.48801350593566894531e-01) (158, 7.87357568740844726562e-01) (159, 7.20819950103759765625e-01) (160, 8.87752652168273925781e-01) (161, 7.48926162719726562500e-01) (162, 8.96692872047424316406e-01) (163, 7.61639714241027832031e-01) (164, 7.16022253036499023438e-01) (165, 8.36206793785095214844e-01) (166, 7.64421343803405761719e-01) (167, 7.15223789215087890625e-01) (168, 7.88547277450561523438e-01) (169, 8.09646725654602050781e-01) (170, 8.41311812400817871094e-01) (171, 8.02459597587585449219e-01) (172, 8.95452380180358886719e-01) (173, 6.98102593421936035156e-01) (174, 8.43479394912719726562e-01) (175, 8.55900406837463378906e-01) (176, 8.08191895484924316406e-01) (177, 7.34429836273193359375e-01) (178, 7.03791737556457519531e-01) (179, 7.10399508476257324219e-01) (180, 8.09288501739501953125e-01) (181, 8.81549835205078125000e-01) (182, 7.63839006423950195312e-01) (183, 7.05531835556030273438e-01) (184, 8.38161706924438476562e-01) (185, 7.21595883369445800781e-01) (186, 7.33018398284912109375e-01) (187, 7.18024849891662597656e-01) (188, 7.72790789604187011719e-01) (189, 8.22769522666931152344e-01) (190, 2.43950080871582031250e+00) (191, 7.62936949729919433594e-01) (192, 2.57235145568847656250e+00) (193, 2.43858718872070312500e+00) (194, 8.26970219612121582031e-01) (195, 8.92505049705505371094e-01) (196, 2.57718753814697265625e+00) (197, 8.93785119056701660156e-01) (198, 2.40838479995727539062e+00) (199, 2.46812820434570312500e+00) (200, 2.50408792495727539062e+00) (201, 2.55209016799926757812e+00) (202, 2.57298135757446289062e+00) (203, 2.50193357467651367188e+00) (204, 8.54323983192443847656e-01) (205, 2.51885414123535156250e+00) (206, 2.46022748947143554688e+00) (207, 2.46317195892333984375e+00) (208, 2.55567789077758789062e+00) (209, 2.46641302108764648438e+00) (210, 2.47596502304077148438e+00) (211, 2.46735978126525878906e+00) (212, 2.45035648345947265625e+00) (213, 2.54219722747802734375e+00) (214, 2.47528505325317382812e+00) (215, 2.59091138839721679688e+00) (216, 2.56618690490722656250e+00) (217, 8.12434673309326171875e-01) (218, 2.41132998466491699219e+00) (219, 2.44137096405029296875e+00) (220, 2.43586015701293945312e+00) (221, 2.45496177673339843750e+00) (222, 2.50670146942138671875e+00) (223, 2.41234302520751953125e+00) (224, 2.49768018722534179688e+00) (225, 2.43606519699096679688e+00) (226, 7.08979129791259765625e-01) (227, 7.80736327171325683594e-01) (228, 2.43224382400512695312e+00) (229, 2.41975736618041992188e+00) (230, 2.55125808715820312500e+00) (231, 2.54046297073364257812e+00) (232, 2.57597875595092773438e+00) (233, 2.52837085723876953125e+00) (234, 2.44652795791625976562e+00) (235, 2.53269624710083007812e+00) (236, 2.45135593414306640625e+00) (237, 2.51088666915893554688e+00) (238, 2.39999938011169433594e+00) (239, 7.12902665138244628906e-01) (240, 8.83168339729309082031e-01) (241, 2.48009538650512695312e+00) (242, 2.48265600204467773438e+00) (243, 2.43591833114624023438e+00) (244, 2.42642402648925781250e+00) (245, 2.56207227706909179688e+00) (246, 2.43096113204956054688e+00) (247, 2.39674186706542968750e+00) (248, 2.47690057754516601562e+00) (249, 2.44642210006713867188e+00) (250, 2.44224405288696289062e+00) (251, 2.51689195632934570312e+00) (252, 2.50551509857177734375e+00) (253, 2.55307674407958984375e+00) (254, 2.53336572647094726562e+00) (255, 2.40732622146606445312e+00) (256, 8.95010828971862792969e-01) (0, 2.54473876953125000000e+00) (1, 2.49045610427856445312e+00) (2, 2.42964839935302734375e+00) (3, 2.56862735748291015625e+00) (4, 2.44584560394287109375e+00) (5, 2.57424259185791015625e+00) (6, 2.54873752593994140625e+00) (7, 2.57834720611572265625e+00) (8, 2.42490148544311523438e+00) (9, 2.48556470870971679688e+00) (10, 3.97160500288009643555e-01) (11, 2.53991937637329101562e+00) (12, 2.48969554901123046875e+00) (13, 4.12456721067428588867e-01) (14, 2.52548122406005859375e+00) (15, 2.57392215728759765625e+00) (16, 2.53591775894165039062e+00) (17, 2.56553030014038085938e+00) (18, 2.40447711944580078125e+00) (19, 2.50212097167968750000e+00) (20, 2.40062260627746582031e+00) (21, 2.40534996986389160156e+00) (22, 2.58315277099609375000e+00) (23, 2.45117568969726562500e+00) (24, 2.45172500610351562500e+00) (25, 2.50417566299438476562e+00) (26, 2.56082201004028320312e+00) (27, 2.40893316268920898438e+00) (28, 2.44167280197143554688e+00) (29, 2.57227945327758789062e+00) (30, 2.40633726119995117188e+00) (31, 2.59054231643676757812e+00) (32, 4.30193036794662475586e-01) (33, 4.03442829847335815430e-01) (34, 5.26626944541931152344e-01) (35, 4.80169743299484252930e-01) (36, 3.81816476583480834961e-01) (37, 4.79495376348495483398e-01) (38, 4.62648123502731323242e-01) (39, 4.10849064588546752930e-01) (40, 3.69191497564315795898e-01) (41, 5.00613689422607421875e-01) (42, 5.54899454116821289062e-01) (43, 4.63018149137496948242e-01) (44, 5.53875565528869628906e-01) (45, 4.84511584043502807617e-01) (46, 4.41071242094039916992e-01) (47, 4.93924468755722045898e-01) (48, 4.54173296689987182617e-01) (49, 4.49679464101791381836e-01) (50, 4.00176733732223510742e-01) (51, 4.58927005529403686523e-01) (52, 4.59160536527633666992e-01) (53, 3.87460678815841674805e-01) (54, 5.14234066009521484375e-01) (55, 5.15016794204711914062e-01) (56, 4.95767563581466674805e-01) (57, 4.79187339544296264648e-01) (58, 5.28080940246582031250e-01) (59, 5.41571497917175292969e-01) (60, 4.55598205327987670898e-01) (61, 5.38549423217773437500e-01) (62, 5.36245107650756835938e-01) (63, 5.26596426963806152344e-01) (64, 3.82797449827194213867e-01) (65, 2.54035091400146484375e+00) (66, 2.48424530029296875000e+00) (67, 2.44209289550781250000e+00) (68, 2.46065163612365722656e+00) (69, 2.58769845962524414062e+00) (70, 2.49374723434448242188e+00) (71, 2.47064828872680664062e+00) (72, 2.52911710739135742188e+00) (73, 2.48945188522338867188e+00) (74, 2.57447147369384765625e+00) (75, 2.52379798889160156250e+00) (76, 2.41476845741271972656e+00) (77, 2.45634794235229492188e+00) (78, 2.45852756500244140625e+00) (79, 2.50974702835083007812e+00) (80, 2.54683256149291992188e+00) (81, 2.49950933456420898438e+00) (82, 2.40947914123535156250e+00) (83, 2.44679832458496093750e+00) (84, 2.52777528762817382812e+00) (85, 2.56451845169067382812e+00) (86, 2.40262031555175781250e+00) (87, 2.46434783935546875000e+00) (88, 2.48451089859008789062e+00) (89, 2.57150602340698242188e+00) (90, 2.44672441482543945312e+00) (91, 2.58091402053833007812e+00) (92, 5.14186859130859375000e-01) (93, 3.87100785970687866211e-01) (94, 5.11641621589660644531e-01) (95, 5.37789463996887207031e-01) (96, 5.31583070755004882812e-01) (97, 4.00017946958541870117e-01) (98, 3.84013742208480834961e-01) (99, 3.96365851163864135742e-01) (100, 3.91847580671310424805e-01) (101, 4.81892079114913940430e-01) (102, 4.71145361661911010742e-01) (103, 5.25096058845520019531e-01) (104, 3.75474900007247924805e-01) (105, 4.49748009443283081055e-01) (106, 4.53025072813034057617e-01) (107, 3.94374579191207885742e-01) (108, 5.10227084159851074219e-01) (109, 5.15683889389038085938e-01) (110, 5.08252620697021484375e-01) (111, 4.61190670728683471680e-01) (112, 4.19324487447738647461e-01) (113, 5.21862864494323730469e-01) (114, 5.12120127677917480469e-01) (115, 5.51231026649475097656e-01) (116, 4.90512222051620483398e-01) (117, 5.18871426582336425781e-01) (118, 4.19710129499435424805e-01) (119, 3.79154175519943237305e-01) (120, 4.94508832693099975586e-01) (121, 4.70565885305404663086e-01) (122, 3.64199370145797729492e-01) (123, 4.49500769376754760742e-01) (124, 4.98471826314926147461e-01) (125, 5.16646146774291992188e-01) (126, 4.28095430135726928711e-01) (127, 2.50753402709960937500e+00) (128, 5.57469248771667480469e-01) (129, 4.52914327383041381836e-01) (130, 5.08031129837036132812e-01) (131, 2.42679595947265625000e+00) (132, 3.75611513853073120117e-01) (133, 4.19981569051742553711e-01) (134, 5.56023120880126953125e-01) (135, 3.91891568899154663086e-01) (136, 5.10534644126892089844e-01) (137, 4.49853271245956420898e-01) (138, 4.27071303129196166992e-01) (139, 4.61566895246505737305e-01) (140, 4.06342357397079467773e-01) (141, 3.76129001379013061523e-01) (142, 3.63562792539596557617e-01) (143, 4.66471999883651733398e-01) (144, 5.38797020912170410156e-01) (145, 5.16487956047058105469e-01) (146, 4.58508104085922241211e-01) (147, 4.70114439725875854492e-01) (148, 4.76164430379867553711e-01) (149, 5.19023418426513671875e-01) (150, 4.90073770284652709961e-01) (151, 4.11478370428085327148e-01) (152, 4.30394381284713745117e-01) (153, 4.95078176259994506836e-01) (154, 5.01784443855285644531e-01) (155, 3.69671314954757690430e-01) (156, 4.52529519796371459961e-01) (157, 3.70684951543807983398e-01) (158, 4.81336563825607299805e-01) (159, 4.50803965330123901367e-01) (160, 4.64404314756393432617e-01) (161, 4.30172771215438842773e-01) (162, 4.81731027364730834961e-01) (163, 4.80820983648300170898e-01) (164, 4.90959376096725463867e-01) (165, 4.78559225797653198242e-01) (166, 5.13517618179321289062e-01) (167, 4.42299216985702514648e-01) (168, 3.69217723608016967773e-01) (169, 3.81393998861312866211e-01) (170, 5.44671177864074707031e-01) (171, 4.16365116834640502930e-01) (172, 3.98328274488449096680e-01) (173, 5.49039125442504882812e-01) (174, 5.23642182350158691406e-01) (175, 3.77930372953414916992e-01) (176, 5.06332159042358398438e-01) (177, 4.22955483198165893555e-01) (178, 4.88849967718124389648e-01) (179, 4.23301786184310913086e-01) (180, 3.82783979177474975586e-01) (181, 4.19728845357894897461e-01) (182, 4.75585311651229858398e-01) (183, 4.53983515501022338867e-01) (184, 5.55612206459045410156e-01) (185, 4.18174833059310913086e-01) (186, 4.64459985494613647461e-01) (187, 4.48946923017501831055e-01) (188, 4.29664939641952514648e-01) (189, 3.86601656675338745117e-01) (190, 2.57722997665405273438e+00) (191, 5.34874439239501953125e-01) (192, 2.49425363540649414062e+00) (193, 2.49976587295532226562e+00) (194, 4.56500500440597534180e-01) (195, 3.89344066381454467773e-01) (196, 2.41913032531738281250e+00) (197, 4.10823315382003784180e-01) (198, 2.50912237167358398438e+00) (199, 2.42915320396423339844e+00) (200, 2.46969652175903320312e+00) (201, 2.49459886550903320312e+00) (202, 2.48632335662841796875e+00) (203, 2.50882959365844726562e+00) (204, 4.47769016027450561523e-01) (205, 2.45077085494995117188e+00) (206, 2.52756547927856445312e+00) (207, 2.43158006668090820312e+00) (208, 2.51453113555908203125e+00) (209, 2.45722055435180664062e+00) (210, 2.49568700790405273438e+00) (211, 2.53812026977539062500e+00) (212, 2.51775455474853515625e+00) (213, 2.41207742691040039062e+00) (214, 2.43290901184082031250e+00) (215, 2.51417160034179687500e+00) (216, 2.47105741500854492188e+00) (217, 5.01500248908996582031e-01) (218, 2.40392374992370605469e+00) (219, 2.54152774810791015625e+00) (220, 2.56558084487915039062e+00) (221, 2.58528470993041992188e+00) (222, 2.51720714569091796875e+00) (223, 2.46396565437316894531e+00) (224, 2.48918199539184570312e+00) (225, 2.41451263427734375000e+00) (226, 4.57440823316574096680e-01) (227, 4.75769609212875366211e-01) (228, 2.46614122390747070312e+00) (229, 2.40736818313598632812e+00) (230, 2.54572772979736328125e+00) (231, 2.53996896743774414062e+00) (232, 2.50609827041625976562e+00) (233, 2.43618249893188476562e+00) (234, 2.45292973518371582031e+00) (235, 2.59467220306396484375e+00) (236, 2.49108457565307617188e+00) (237, 2.58462619781494140625e+00) (238, 2.43038368225097656250e+00) (239, 3.73073071241378784180e-01) (240, 4.09303873777389526367e-01) (241, 2.53020191192626953125e+00) (242, 2.55199861526489257812e+00) (243, 2.56786346435546875000e+00) (244, 2.54641056060791015625e+00) (245, 2.58903884887695312500e+00) (246, 2.48616647720336914062e+00) (247, 2.42159938812255859375e+00) (248, 2.53134441375732421875e+00) (249, 2.49422121047973632812e+00) (250, 2.56725788116455078125e+00) (251, 2.50105619430541992188e+00) (252, 2.48363733291625976562e+00) (253, 2.48859643936157226562e+00) (254, 2.56915330886840820312e+00) (255, 2.57695055007934570312e+00) (256, 4.70566242933273315430e-01) (0, 2.46739912033081054688e+00) (1, 2.49352526664733886719e+00) (2, 2.57751274108886718750e+00) (3, 2.47889852523803710938e+00) (4, 2.44338440895080566406e+00) (5, 2.52161264419555664062e+00) (6, 2.58912801742553710938e+00) (7, 2.48369789123535156250e+00) (8, 2.57867336273193359375e+00) (9, 2.58793163299560546875e+00) (10, -2.11367905139923095703e-01) (11, 2.56743097305297851562e+00) (12, 2.42244648933410644531e+00) (13, -1.97489738464355468750e-01) (14, 2.41753959655761718750e+00) (15, 2.55677986145019531250e+00) (16, 2.54892158508300781250e+00) (17, 2.58953428268432617188e+00) (18, 2.50732135772705078125e+00) (19, 2.54209184646606445312e+00) (20, 2.47983193397521972656e+00) (21, 2.53305196762084960938e+00) (22, 2.47756719589233398438e+00) (23, 2.57818460464477539062e+00) (24, 2.50444126129150390625e+00) (25, 2.58275461196899414062e+00) (26, 2.46595287322998046875e+00) (27, 2.39716863632202148438e+00) (28, 2.55603885650634765625e+00) (29, 2.44703459739685058594e+00) (30, 2.50854015350341796875e+00) (31, 2.42756938934326171875e+00) (32, -2.45590567588806152344e-01) (33, -3.00097912549972534180e-01) (34, -2.79682457447052001953e-01) (35, -1.98075056076049804688e-01) (36, -3.74354332685470581055e-01) (37, -2.86423146724700927734e-01) (38, -3.10245782136917114258e-01) (39, -3.91549795866012573242e-01) (40, -2.94360369443893432617e-01) (41, -3.27200919389724731445e-01) (42, -2.19987869262695312500e-01) (43, -2.67782628536224365234e-01) (44, -3.30277830362319946289e-01) (45, -1.98316872119903564453e-01) (46, -3.06871861219406127930e-01) (47, -3.77225011587142944336e-01) (48, -2.04651355743408203125e-01) (49, -1.95419132709503173828e-01) (50, -2.31002151966094970703e-01) (51, -3.20688277482986450195e-01) (52, -2.58235871791839599609e-01) (53, -3.49303930997848510742e-01) (54, -3.38372677564620971680e-01) (55, -3.49663466215133666992e-01) (56, -3.62418204545974731445e-01) (57, -2.68288552761077880859e-01) (58, -3.48363548517227172852e-01) (59, -2.02248036861419677734e-01) (60, -2.17122793197631835938e-01) (61, -2.35692262649536132812e-01) (62, -3.70547562837600708008e-01) (63, -2.68300592899322509766e-01) (64, -3.41377407312393188477e-01) (65, 2.53446435928344726562e+00) (66, 2.51831865310668945312e+00) (67, 2.46896266937255859375e+00) (68, 2.44245433807373046875e+00) (69, 2.40248584747314453125e+00) (70, 2.47182583808898925781e+00) (71, 2.54250669479370117188e+00) (72, 2.46969795227050781250e+00) (73, 2.44625091552734375000e+00) (74, 2.46913671493530273438e+00) (75, 2.53383302688598632812e+00) (76, 2.44234657287597656250e+00) (77, 2.55667781829833984375e+00) (78, 2.55102062225341796875e+00) (79, 2.43210840225219726562e+00) (80, 2.55567169189453125000e+00) (81, 2.51443147659301757812e+00) (82, 2.50583267211914062500e+00) (83, 2.49184846878051757812e+00) (84, 2.55954027175903320312e+00) (85, 2.56187295913696289062e+00) (86, 2.53659772872924804688e+00) (87, 2.59153509140014648438e+00) (88, 2.48799705505371093750e+00) (89, 2.58264732360839843750e+00) (90, 2.58369970321655273438e+00) (91, 2.46528720855712890625e+00) (92, -2.48914003372192382812e-01) (93, -3.82716804742813110352e-01) (94, -1.98882162570953369141e-01) (95, -1.95878565311431884766e-01) (96, -2.44121134281158447266e-01) (97, -2.76432126760482788086e-01) (98, -3.22784572839736938477e-01) (99, -1.97535812854766845703e-01) (100, -2.69815087318420410156e-01) (101, -2.46827542781829833984e-01) (102, -2.50898003578186035156e-01) (103, -1.95986032485961914062e-01) (104, -1.96445524692535400391e-01) (105, -3.77630025148391723633e-01) (106, -2.58022069931030273438e-01) (107, -3.49967628717422485352e-01) (108, -2.16821014881134033203e-01) (109, -3.02870243787765502930e-01) (110, -3.13728183507919311523e-01) (111, -2.57018327713012695312e-01) (112, -3.84307771921157836914e-01) (113, -2.03764140605926513672e-01) (114, -3.61038714647293090820e-01) (115, -2.20636367797851562500e-01) (116, -2.37760007381439208984e-01) (117, -2.20309674739837646484e-01) (118, -2.24970340728759765625e-01) (119, -3.45631629228591918945e-01) (120, -2.33531415462493896484e-01) (121, -2.37139582633972167969e-01) (122, -2.76213169097900390625e-01) (123, -2.88032621145248413086e-01) (124, -2.25443542003631591797e-01) (125, -2.80682504177093505859e-01) (126, -2.89498358964920043945e-01) (127, 2.51512980461120605469e+00) (128, -3.62701803445816040039e-01) (129, -2.17870056629180908203e-01) (130, -2.78274834156036376953e-01) (131, 2.55217742919921875000e+00) (132, -2.70284831523895263672e-01) (133, -3.34760040044784545898e-01) (134, -2.39677309989929199219e-01) (135, -2.72317528724670410156e-01) (136, -3.17977219820022583008e-01) (137, -3.03286582231521606445e-01) (138, -2.27872312068939208984e-01) (139, -3.40385466814041137695e-01) (140, -2.11743950843811035156e-01) (141, -3.47187668085098266602e-01) (142, -2.02990949153900146484e-01) (143, -2.01638877391815185547e-01) (144, -3.56539040803909301758e-01) (145, -3.69616836309432983398e-01) (146, -2.27862477302551269531e-01) (147, -1.99886202812194824219e-01) (148, -1.95513665676116943359e-01) (149, -2.58419990539550781250e-01) (150, -3.51105004549026489258e-01) (151, -2.34632253646850585938e-01) (152, -3.01146775484085083008e-01) (153, -2.32905268669128417969e-01) (154, -3.28252047300338745117e-01) (155, -3.32177489995956420898e-01) (156, -3.19174975156784057617e-01) (157, -2.23337531089782714844e-01) (158, -2.12916493415832519531e-01) (159, -2.87463992834091186523e-01) (160, -2.46794819831848144531e-01) (161, -2.96778529882431030273e-01) (162, -3.31155210733413696289e-01) (163, -3.22666853666305541992e-01) (164, -2.37125694751739501953e-01) (165, -3.76419693231582641602e-01) (166, -2.00571477413177490234e-01) (167, -3.60690087080001831055e-01) (168, -2.85293400287628173828e-01) (169, -2.34030961990356445312e-01) (170, -3.06662708520889282227e-01) (171, -3.02624553442001342773e-01) (172, -3.86805862188339233398e-01) (173, -3.15240830183029174805e-01) (174, -3.09850662946701049805e-01) (175, -3.48932057619094848633e-01) (176, -2.90444880723953247070e-01) (177, -3.43300312757492065430e-01) (178, -3.54405432939529418945e-01) (179, -2.91545718908309936523e-01) (180, -2.07307457923889160156e-01) (181, -3.11097592115402221680e-01) (182, -3.31765145063400268555e-01) (183, -3.14041465520858764648e-01) (184, -3.49590092897415161133e-01) (185, -2.65604376792907714844e-01) (186, -2.51806080341339111328e-01) (187, -2.74352192878723144531e-01) (188, -2.94529110193252563477e-01) (189, -2.70309746265411376953e-01) (190, 2.42287826538085937500e+00) (191, -3.46911102533340454102e-01) (192, 2.41760635375976562500e+00) (193, 2.48613595962524414062e+00) (194, -2.75165081024169921875e-01) (195, -2.15388238430023193359e-01) (196, 2.50412893295288085938e+00) (197, -2.81323730945587158203e-01) (198, 2.40861606597900390625e+00) (199, 2.41324853897094726562e+00) (200, 2.46933984756469726562e+00) (201, 2.49636626243591308594e+00) (202, 2.50503683090209960938e+00) (203, 2.47694683074951171875e+00) (204, -2.14743435382843017578e-01) (205, 2.58959913253784179688e+00) (206, 2.52242755889892578125e+00) (207, 2.47950601577758789062e+00) (208, 2.44071149826049804688e+00) (209, 2.56243467330932617188e+00) (210, 2.58237314224243164062e+00) (211, 2.42781686782836914062e+00) (212, 2.44575023651123046875e+00) (213, 2.44502115249633789062e+00) (214, 2.50818824768066406250e+00) (215, 2.49057292938232421875e+00) (216, 2.57382965087890625000e+00) (217, -3.39486628770828247070e-01) (218, 2.41063356399536132812e+00) (219, 2.47371339797973632812e+00) (220, 2.57489824295043945312e+00) (221, 2.43764305114746093750e+00) (222, 2.52121496200561523438e+00) (223, 2.39663553237915039062e+00) (224, 2.52791023254394531250e+00) (225, 2.44046258926391601562e+00) (226, -2.14621543884277343750e-01) (227, -3.54111224412918090820e-01) (228, 2.55355167388916015625e+00) (229, 2.58840751647949218750e+00) (230, 2.45355033874511718750e+00) (231, 2.42702245712280273438e+00) (232, 2.48890495300292968750e+00) (233, 2.56271839141845703125e+00) (234, 2.50810050964355468750e+00) (235, 2.46857404708862304688e+00) (236, 2.55644845962524414062e+00) (237, 2.43465900421142578125e+00) (238, 2.55221176147460937500e+00) (239, -3.88990551233291625977e-01) (240, -3.89056414365768432617e-01) (241, 2.53871631622314453125e+00) (242, 2.43323922157287597656e+00) (243, 2.45110654830932617188e+00) (244, 2.58786821365356445312e+00) (245, 2.54555845260620117188e+00) (246, 2.54581069946289062500e+00) (247, 2.56582880020141601562e+00) (248, 2.40048503875732421875e+00) (249, 2.56057548522949218750e+00) (250, 2.44367313385009765625e+00) (251, 2.57951402664184570312e+00) (252, 2.40234947204589843750e+00) (253, 2.56901931762695312500e+00) (254, 2.58028078079223632812e+00) (255, 2.53439092636108398438e+00) (256, -3.76668423414230346680e-01) (0, 2.56007242202758789062e+00) (1, 2.57469272613525390625e+00) (2, 2.57129621505737304688e+00) (3, 2.55261087417602539062e+00) (4, 2.43237400054931640625e+00) (5, 2.40245008468627929688e+00) (6, 2.44564676284790039062e+00) (7, 2.39922332763671875000e+00) (8, 2.51468181610107421875e+00) (9, 2.51835203170776367188e+00) (10, 2.31262013316154479980e-01) (11, 2.55347204208374023438e+00) (12, 2.47469496726989746094e+00) (13, 2.36684277653694152832e-01) (14, 2.55882835388183593750e+00) (15, 2.41754245758056640625e+00) (16, 2.40259552001953125000e+00) (17, 2.41406631469726562500e+00) (18, 2.40954160690307617188e+00) (19, 2.55228519439697265625e+00) (20, 2.56400775909423828125e+00) (21, 2.57950162887573242188e+00) (22, 2.55690145492553710938e+00) (23, 2.52871465682983398438e+00) (24, 2.42730617523193359375e+00) (25, 2.54054689407348632812e+00) (26, 2.53519535064697265625e+00) (27, 2.40045690536499023438e+00) (28, 2.52495861053466796875e+00) (29, 2.47371721267700195312e+00) (30, 2.41820144653320312500e+00) (31, 2.48916196823120117188e+00) (32, 1.24000236392021179199e-01) (33, 2.65087872743606567383e-01) (34, 1.17363303899765014648e-01) (35, 1.60505309700965881348e-01) (36, 7.16689974069595336914e-02) (37, 1.67141273617744445801e-01) (38, 1.63859739899635314941e-01) (39, 1.90481856465339660645e-01) (40, 8.96246433258056640625e-02) (41, 1.27793744206428527832e-01) (42, 1.48085042834281921387e-01) (43, 1.68450787663459777832e-01) (44, 9.71500277519226074219e-02) (45, 1.11044615507125854492e-01) (46, 1.90124228596687316895e-01) (47, 1.03876665234565734863e-01) (48, 1.29241928458213806152e-01) (49, 2.03797146677970886230e-01) (50, 2.60293155908584594727e-01) (51, 9.73810404539108276367e-02) (52, 1.87430158257484436035e-01) (53, 2.21325650811195373535e-01) (54, 2.30226680636405944824e-01) (55, 2.18867674469947814941e-01) (56, 1.66003510355949401855e-01) (57, 1.69553086161613464355e-01) (58, 2.23455742001533508301e-01) (59, 9.50934588909149169922e-02) (60, 2.47401580214500427246e-01) (61, 2.45788231492042541504e-01) (62, 1.88386783003807067871e-01) (63, 1.04073807597160339355e-01) (64, 2.43548050522804260254e-01) (65, 2.56696271896362304688e+00) (66, 2.52579212188720703125e+00) (67, 2.57642984390258789062e+00) (68, 2.46677613258361816406e+00) (69, 2.42232370376586914062e+00) (70, 2.49958372116088867188e+00) (71, 2.48907279968261718750e+00) (72, 2.48278951644897460938e+00) (73, 2.58034086227416992188e+00) (74, 2.59019565582275390625e+00) (75, 2.51261138916015625000e+00) (76, 2.42405748367309570312e+00) (77, 2.51299190521240234375e+00) (78, 2.54916000366210937500e+00) (79, 2.48597145080566406250e+00) (80, 2.44946098327636718750e+00) (81, 2.54212522506713867188e+00) (82, 2.51602411270141601562e+00) (83, 2.56956291198730468750e+00) (84, 2.49612283706665039062e+00) (85, 2.47892284393310546875e+00) (86, 2.52110290527343750000e+00) (87, 2.59479808807373046875e+00) (88, 2.58114814758300781250e+00) (89, 2.47723054885864257812e+00) (90, 2.42256355285644531250e+00) (91, 2.56122159957885742188e+00) (92, 1.27149835228919982910e-01) (93, 2.15081706643104553223e-01) (94, 6.94265514612197875977e-02) (95, 1.03369876742362976074e-01) (96, 1.86175748705863952637e-01) (97, 1.99349656701087951660e-01) (98, 8.39309096336364746094e-02) (99, 2.57083088159561157227e-01) (100, 2.25804492831230163574e-01) (101, 1.87645778059959411621e-01) (102, 1.50287017226219177246e-01) (103, 1.12725049257278442383e-01) (104, 1.72117695212364196777e-01) (105, 1.44613727927207946777e-01) (106, 2.29467615485191345215e-01) (107, 2.00306192040443420410e-01) (108, 2.61736690998077392578e-01) (109, 1.82758852839469909668e-01) (110, 9.04086083173751831055e-02) (111, 1.15328773856163024902e-01) (112, 1.29015192389488220215e-01) (113, 2.10564061999320983887e-01) (114, 8.90230238437652587891e-02) (115, 2.29269161820411682129e-01) (116, 9.36181694269180297852e-02) (117, 2.14256927371025085449e-01) (118, 2.28198632597923278809e-01) (119, 7.88973420858383178711e-02) (120, 9.56185460090637207031e-02) (121, 2.54893571138381958008e-01) (122, 2.44250133633613586426e-01) (123, 1.55440375208854675293e-01) (124, 2.02647224068641662598e-01) (125, 2.46348664164543151855e-01) (126, 1.91482231020927429199e-01) (127, 2.45003581047058105469e+00) (128, 1.78370311856269836426e-01) (129, 2.08085134625434875488e-01) (130, 1.11250013113021850586e-01) (131, 2.46538758277893066406e+00) (132, 1.28402903676033020020e-01) (133, 1.94209024310111999512e-01) (134, 1.82243809103965759277e-01) (135, 2.33192577958106994629e-01) (136, 7.14947283267974853516e-02) (137, 1.44383445382118225098e-01) (138, 1.66170731186866760254e-01) (139, 2.65903443098068237305e-01) (140, 2.59814292192459106445e-01) (141, 1.89251348376274108887e-01) (142, 1.13904163241386413574e-01) (143, 1.21501445770263671875e-01) (144, 1.32487386465072631836e-01) (145, 1.35599181056022644043e-01) (146, 8.34425687789916992188e-02) (147, 1.58777549862861633301e-01) (148, 8.25280845165252685547e-02) (149, 2.44313195347785949707e-01) (150, 1.70346900820732116699e-01) (151, 1.10818624496459960938e-01) (152, 2.31878742575645446777e-01) (153, 1.47268995642662048340e-01) (154, 1.98930993676185607910e-01) (155, 1.67197927832603454590e-01) (156, 1.26289650797843933105e-01) (157, 1.23085200786590576172e-01) (158, 2.21364900469779968262e-01) (159, 2.37331971526145935059e-01) (160, 2.63842344284057617188e-01) (161, 2.65286892652511596680e-01) (162, 1.06850743293762207031e-01) (163, 1.24917209148406982422e-01) (164, 1.92167893052101135254e-01) (165, 2.21766546368598937988e-01) (166, 9.07817631959915161133e-02) (167, 1.96334615349769592285e-01) (168, 9.88219827413558959961e-02) (169, 1.89624473452568054199e-01) (170, 1.94910004734992980957e-01) (171, 9.13082361221313476562e-02) (172, 1.11547827720642089844e-01) (173, 2.41486176848411560059e-01) (174, 1.45481660962104797363e-01) (175, 1.76707193255424499512e-01) (176, 1.09757333993911743164e-01) (177, 1.61596223711967468262e-01) (178, 6.81567043066024780273e-02) (179, 1.24957427382469177246e-01) (180, 1.38581424951553344727e-01) (181, 1.71175584197044372559e-01) (182, 1.68448045849800109863e-01) (183, 1.03132143616676330566e-01) (184, 2.51116603612899780273e-01) (185, 1.00051015615463256836e-01) (186, 2.03002080321311950684e-01) (187, 1.10078215599060058594e-01) (188, 1.55808195471763610840e-01) (189, 1.57038941979408264160e-01) (190, 2.40862298011779785156e+00) (191, 1.52322515845298767090e-01) (192, 2.48353862762451171875e+00) (193, 2.44814586639404296875e+00) (194, 2.09911689162254333496e-01) (195, 7.98376947641372680664e-02) (196, 2.40258407592773437500e+00) (197, 2.33365431427955627441e-01) (198, 2.53738498687744140625e+00) (199, 2.43407821655273437500e+00) (200, 2.48420286178588867188e+00) (201, 2.46496725082397460938e+00) (202, 2.45805835723876953125e+00) (203, 2.52842235565185546875e+00) (204, 1.10584452748298645020e-01) (205, 2.53621196746826171875e+00) (206, 2.43780183792114257812e+00) (207, 2.48155450820922851562e+00) (208, 2.43048048019409179688e+00) (209, 2.43863058090209960938e+00) (210, 2.53918409347534179688e+00) (211, 2.50173377990722656250e+00) (212, 2.54247808456420898438e+00) (213, 2.44030404090881347656e+00) (214, 2.53753805160522460938e+00) (215, 2.52626657485961914062e+00) (216, 2.47302722930908203125e+00) (217, 1.44671067595481872559e-01) (218, 2.56901693344116210938e+00) (219, 2.56150722503662109375e+00) (220, 2.56292295455932617188e+00) (221, 2.58177089691162109375e+00) (222, 2.44650173187255859375e+00) (223, 2.45059251785278320312e+00) (224, 2.43404769897460937500e+00) (225, 2.58908557891845703125e+00) (226, 1.34561523795127868652e-01) (227, 1.12222403287887573242e-01) (228, 2.55512285232543945312e+00) (229, 2.40461874008178710938e+00) (230, 2.47897243499755859375e+00) (231, 2.44345664978027343750e+00) (232, 2.47371673583984375000e+00) (233, 2.54116201400756835938e+00) (234, 2.57601070404052734375e+00) (235, 2.51697349548339843750e+00) (236, 2.48150539398193359375e+00) (237, 2.41794347763061523438e+00) (238, 2.40265893936157226562e+00) (239, 1.87576130032539367676e-01) (240, 1.32164135575294494629e-01) (241, 2.54597425460815429688e+00) (242, 2.42198181152343750000e+00) (243, 2.40731430053710937500e+00) (244, 2.59040975570678710938e+00) (245, 2.56365108489990234375e+00) (246, 2.53771209716796875000e+00) (247, 2.46756792068481445312e+00) (248, 2.44099378585815429688e+00) (249, 2.51085996627807617188e+00) (250, 2.43320608139038085938e+00) (251, 2.40804791450500488281e+00) (252, 2.49676179885864257812e+00) (253, 2.48383903503417968750e+00) (254, 2.46277189254760742188e+00) (255, 2.53494071960449218750e+00) (256, 1.48514792323112487793e-01) (0, 2.53000545501708984375e+00) (1, 2.57983541488647460938e+00) (2, 2.43630957603454589844e+00) (3, 2.53875494003295898438e+00) (4, 2.46293926239013671875e+00) (5, 2.48389768600463867188e+00) (6, 2.41660308837890625000e+00) (7, 2.40823245048522949219e+00) (8, 2.46403932571411132812e+00) (9, 2.53770780563354492188e+00) (10, 1.65328308939933776855e-01) (11, 2.48611354827880859375e+00) (12, 2.54449796676635742188e+00) (13, 3.96635621786117553711e-01) (14, 2.55094957351684570312e+00) (15, 2.49460339546203613281e+00) (16, 2.44023036956787109375e+00) (17, 2.56239509582519531250e+00) (18, 2.48914408683776855469e+00) (19, 2.40801239013671875000e+00) (20, 2.50423812866210937500e+00) (21, 2.56084299087524414062e+00) (22, 2.45313739776611328125e+00) (23, 2.41922903060913085938e+00) (24, 2.39818048477172851562e+00) (25, 2.46531653404235839844e+00) (26, 2.52012205123901367188e+00) (27, 2.48615026473999023438e+00) (28, 2.53221940994262695312e+00) (29, 2.45919418334960937500e+00) (30, 2.56733703613281250000e+00) (31, 2.46635580062866210938e+00) (32, 1.14619955420494079590e-01) (33, 7.92371928691864013672e-02) (34, 3.91760438680648803711e-01) (35, 4.92749422788619995117e-01) (36, 1.67265877127647399902e-01) (37, 1.01435571908950805664e-01) (38, 5.05113005638122558594e-01) (39, 2.35436186194419860840e-01) (40, 5.54333567619323730469e-01) (41, 4.03113394975662231445e-01) (42, 4.36740249395370483398e-01) (43, 1.91903516650199890137e-01) (44, 4.21361833810806274414e-01) (45, 3.91821175813674926758e-01) (46, 9.06381160020828247070e-02) (47, 4.65723246335983276367e-01) (48, 2.47288241982460021973e-01) (49, 1.83913365006446838379e-01) (50, 1.66807487607002258301e-01) (51, 4.66716736555099487305e-01) (52, 1.48887529969215393066e-01) (53, 2.24076077342033386230e-01) (54, 1.79017826914787292480e-01) (55, 4.62258189916610717773e-01) (56, 9.35237407684326171875e-02) (57, 4.14330393075942993164e-01) (58, 2.41480633616447448730e-01) (59, 5.40933489799499511719e-01) (60, 1.66596665978431701660e-01) (61, 2.12949052453041076660e-01) (62, 4.11420613527297973633e-01) (63, 5.24947762489318847656e-01) (64, 2.24858239293098449707e-01) 